<?xml version="1.0" encoding="UTF-8" standalone="yes"?>
<PMML xmlns="http://www.dmg.org/PMML-4_4" xmlns:data="http://jpmml.org/jpmml-model/InlineTable" version="4.4">
	<Header>
		<Application name="SkLearn2PMML package" version="0.90.0"/>
		<Timestamp>2023-05-02T17:41:21Z</Timestamp>
	</Header>
	<MiningBuildTask>
		<Extension name="repr">PMMLPipeline(steps=[('regressor', RandomForestRegressor(max_depth=5, n_estimators=64, random_state=42))])</Extension>
	</MiningBuildTask>
	<DataDictionary>
		<DataField name="Time" optype="continuous" dataType="double"/>
		<DataField name="0" optype="continuous" dataType="float"/>
		<DataField name="2" optype="continuous" dataType="float"/>
	</DataDictionary>
	<MiningModel functionName="regression" algorithmName="sklearn.ensemble._forest.RandomForestRegressor">
		<MiningSchema>
			<MiningField name="Time" usageType="target"/>
			<MiningField name="0"/>
			<MiningField name="2"/>
		</MiningSchema>
		<LocalTransformations>
			<DerivedField name="double(0)" optype="continuous" dataType="double">
				<FieldRef field="0"/>
			</DerivedField>
			<DerivedField name="double(2)" optype="continuous" dataType="double">
				<FieldRef field="2"/>
			</DerivedField>
		</LocalTransformations>
		<Segmentation multipleModelMethod="average" missingPredictionTreatment="returnMissing">
			<Segment id="1">
				<True/>
				<TreeModel functionName="regression" missingValueStrategy="nullPrediction" noTrueChildStrategy="returnLastPrediction">
					<MiningSchema>
						<MiningField name="double(0)"/>
						<MiningField name="double(2)"/>
					</MiningSchema>
					<Node score="54.5095665">
						<True/>
						<Node score="23.2130565">
							<SimplePredicate field="double(0)" operator="lessOrEqual" value="1775956.0"/>
							<Node score="17.36552225">
								<SimplePredicate field="double(0)" operator="lessOrEqual" value="1524675.5"/>
								<Node score="14.055949837837838">
									<SimplePredicate field="double(2)" operator="lessOrEqual" value="78946.0"/>
									<Node score="12.236885333333333">
										<SimplePredicate field="double(2)" operator="lessOrEqual" value="67100.5"/>
										<Node score="12.607122285714285">
											<SimplePredicate field="double(2)" operator="lessOrEqual" value="65193.5"/>
										</Node>
									</Node>
									<Node score="20.428801">
										<SimplePredicate field="double(2)" operator="lessOrEqual" value="67309.5"/>
									</Node>
								</Node>
								<Node score="17.089638400000002">
									<SimplePredicate field="double(0)" operator="lessOrEqual" value="1362954.0"/>
									<Node score="16.20592634">
										<SimplePredicate field="double(0)" operator="lessOrEqual" value="1346629.5"/>
									</Node>
								</Node>
								<Node score="44.6305295">
									<SimplePredicate field="double(2)" operator="lessOrEqual" value="85574.0"/>
								</Node>
							</Node>
							<Node score="22.690207906250002">
								<SimplePredicate field="double(0)" operator="lessOrEqual" value="1744540.0"/>
								<Node score="28.045824">
									<SimplePredicate field="double(0)" operator="lessOrEqual" value="1533110.5"/>
								</Node>
								<Node score="19.3985534">
									<SimplePredicate field="double(2)" operator="lessOrEqual" value="99360.0"/>
								</Node>
							</Node>
							<Node score="50.34957">
								<SimplePredicate field="double(2)" operator="lessOrEqual" value="109632.5"/>
							</Node>
							<Node score="22.794240000000002">
								<SimplePredicate field="double(0)" operator="lessOrEqual" value="1758432.5"/>
							</Node>
						</Node>
					</Node>
				</TreeModel>
			</Segment>
			<Segment id="2">
				<True/>
				<TreeModel functionName="regression" missingValueStrategy="nullPrediction" noTrueChildStrategy="returnLastPrediction">
					<MiningSchema>
						<MiningField name="double(0)"/>
						<MiningField name="double(2)"/>
					</MiningSchema>
					<Node score="22.967424375">
						<True/>
						<Node score="18.98777575">
							<SimplePredicate field="double(2)" operator="lessOrEqual" value="99740.5"/>
							<Node score="15.390336000000001">
								<SimplePredicate field="double(2)" operator="lessOrEqual" value="79197.0"/>
								<Node score="12.160511999999999">
									<SimplePredicate field="double(0)" operator="lessOrEqual" value="1073577.5"/>
									<Node score="11.213823999999999">
										<SimplePredicate field="double(2)" operator="lessOrEqual" value="64899.0"/>
										<Node score="12.459690666666667">
											<SimplePredicate field="double(2)" operator="lessOrEqual" value="64675.0"/>
										</Node>
									</Node>
									<Node score="13.724672">
										<SimplePredicate field="double(0)" operator="lessOrEqual" value="1056297.0"/>
									</Node>
								</Node>
								<Node score="20.428801">
									<SimplePredicate field="double(2)" operator="lessOrEqual" value="67380.0"/>
								</Node>
								<Node score="13.959850611111111">
									<SimplePredicate field="double(2)" operator="lessOrEqual" value="76497.5"/>
								</Node>
							</Node>
							<Node score="16.62249353846154">
								<SimplePredicate field="double(2)" operator="lessOrEqual" value="90740.0"/>
								<Node score="15.496857699999998">
									<SimplePredicate field="double(2)" operator="lessOrEqual" value="84165.0"/>
									<Node score="16.31997152777778">
										<SimplePredicate field="double(2)" operator="lessOrEqual" value="82388.5"/>
									</Node>
								</Node>
								<Node score="21.073408">
									<SimplePredicate field="double(2)" operator="lessOrEqual" value="84799.5"/>
								</Node>
							</Node>
							<Node score="17.972735961538465">
								<SimplePredicate field="double(2)" operator="lessOrEqual" value="97938.0"/>
								<Node score="19.3981445">
									<SimplePredicate field="double(0)" operator="lessOrEqual" value="1485514.0"/>
								</Node>
							</Node>
							<Node score="20.8266235">
								<SimplePredicate field="double(2)" operator="lessOrEqual" value="98725.0"/>
							</Node>
						</Node>
						<Node score="20.15539225">
							<SimplePredicate field="double(2)" operator="lessOrEqual" value="105342.0"/>
							<Node score="30.601214999999996">
								<SimplePredicate field="double(2)" operator="lessOrEqual" value="100078.0"/>
							</Node>
							<Node score="21.5964673">
								<SimplePredicate field="double(2)" operator="lessOrEqual" value="105127.0"/>
								<Node score="19.970048">
									<SimplePredicate field="double(2)" operator="lessOrEqual" value="102136.0"/>
								</Node>
							</Node>
							<Node score="26.817024">
								<SimplePredicate field="double(0)" operator="lessOrEqual" value="1683058.5"/>
							</Node>
						</Node>
						<Node score="55.535105">
							<SimplePredicate field="double(2)" operator="lessOrEqual" value="105505.5"/>
						</Node>
						<Node score="22.517686571428573">
							<SimplePredicate field="double(0)" operator="lessOrEqual" value="1739805.0"/>
							<Node score="21.002496750000002">
								<SimplePredicate field="double(0)" operator="lessOrEqual" value="1697625.0"/>
							</Node>
						</Node>
						<Node score="50.34957">
							<SimplePredicate field="double(2)" operator="lessOrEqual" value="109632.5"/>
						</Node>
					</Node>
				</TreeModel>
			</Segment>
			<Segment id="3">
				<True/>
				<TreeModel functionName="regression" missingValueStrategy="nullPrediction" noTrueChildStrategy="returnLastPrediction">
					<MiningSchema>
						<MiningField name="double(0)"/>
						<MiningField name="double(2)"/>
					</MiningSchema>
					<Node score="54.5095665">
						<True/>
						<Node score="16.245674666666666">
							<SimplePredicate field="double(0)" operator="lessOrEqual" value="1366581.0"/>
							<Node score="14.178160599999998">
								<SimplePredicate field="double(2)" operator="lessOrEqual" value="76175.0"/>
								<Node score="12.646016">
									<SimplePredicate field="double(2)" operator="lessOrEqual" value="68745.0"/>
									<Node score="11.691008">
										<SimplePredicate field="double(0)" operator="lessOrEqual" value="1064517.0"/>
										<Node score="11.213823999999999">
											<SimplePredicate field="double(0)" operator="lessOrEqual" value="1046574.0"/>
										</Node>
									</Node>
									<Node score="13.269333333333334">
										<SimplePredicate field="double(0)" operator="lessOrEqual" value="1079844.0"/>
									</Node>
								</Node>
								<Node score="15.116800000000001">
									<SimplePredicate field="double(2)" operator="lessOrEqual" value="68843.0"/>
								</Node>
								<Node score="13.638688">
									<SimplePredicate field="double(0)" operator="lessOrEqual" value="1138414.5"/>
								</Node>
							</Node>
							<Node score="16.584832125">
								<SimplePredicate field="double(2)" operator="lessOrEqual" value="80465.0"/>
								<Node score="15.255040000000001">
									<SimplePredicate field="double(0)" operator="lessOrEqual" value="1267140.0"/>
									<Node score="15.796736000000001">
										<SimplePredicate field="double(0)" operator="lessOrEqual" value="1239983.5"/>
									</Node>
								</Node>
								<Node score="17.302820071428574">
									<SimplePredicate field="double(0)" operator="lessOrEqual" value="1276568.0"/>
								</Node>
							</Node>
							<Node score="15.437824">
								<SimplePredicate field="double(2)" operator="lessOrEqual" value="82754.5"/>
								<Node score="14.257663999999998">
									<SimplePredicate field="double(0)" operator="lessOrEqual" value="1294674.5"/>
								</Node>
							</Node>
							<Node score="15.9545344">
								<SimplePredicate field="double(0)" operator="lessOrEqual" value="1344151.0"/>
							</Node>
						</Node>
						<Node score="44.6305295">
							<SimplePredicate field="double(2)" operator="lessOrEqual" value="85574.0"/>
						</Node>
						<Node score="21.509232353658536">
							<SimplePredicate field="double(0)" operator="lessOrEqual" value="1787473.5"/>
							<Node score="17.335381416666667">
								<SimplePredicate field="double(2)" operator="lessOrEqual" value="95292.5"/>
								<Node score="16.22590572222222">
									<SimplePredicate field="double(0)" operator="lessOrEqual" value="1397610.5"/>
								</Node>
							</Node>
							<Node score="28.045824">
								<SimplePredicate field="double(2)" operator="lessOrEqual" value="95820.0"/>
							</Node>
						</Node>
					</Node>
				</TreeModel>
			</Segment>
			<Segment id="4">
				<True/>
				<TreeModel functionName="regression" missingValueStrategy="nullPrediction" noTrueChildStrategy="returnLastPrediction">
					<MiningSchema>
						<MiningField name="double(0)"/>
						<MiningField name="double(2)"/>
					</MiningSchema>
					<Node score="54.5095665">
						<True/>
						<Node score="15.872292357142856">
							<SimplePredicate field="double(2)" operator="lessOrEqual" value="85411.5"/>
							<Node score="14.62745153448276">
								<SimplePredicate field="double(2)" operator="lessOrEqual" value="78946.0"/>
								<Node score="12.26624">
									<SimplePredicate field="double(2)" operator="lessOrEqual" value="67100.5"/>
									<Node score="13.724672">
										<SimplePredicate field="double(0)" operator="lessOrEqual" value="1043087.0"/>
										<Node score="12.179455999999998">
											<SimplePredicate field="double(0)" operator="lessOrEqual" value="1038377.0"/>
										</Node>
									</Node>
									<Node score="11.780096">
										<SimplePredicate field="double(2)" operator="lessOrEqual" value="66531.0"/>
									</Node>
								</Node>
								<Node score="20.428801">
									<SimplePredicate field="double(2)" operator="lessOrEqual" value="67253.5"/>
								</Node>
								<Node score="13.378116266666668">
									<SimplePredicate field="double(2)" operator="lessOrEqual" value="71151.0"/>
								</Node>
							</Node>
							<Node score="15.900330666666667">
								<SimplePredicate field="double(2)" operator="lessOrEqual" value="82071.0"/>
								<Node score="17.5134715">
									<SimplePredicate field="double(0)" operator="lessOrEqual" value="1276568.0"/>
									<Node score="16.7761915">
										<SimplePredicate field="double(2)" operator="lessOrEqual" value="79607.5"/>
									</Node>
								</Node>
								<Node score="15.077888">
									<SimplePredicate field="double(0)" operator="lessOrEqual" value="1280310.5"/>
								</Node>
							</Node>
							<Node score="22.848000499999998">
								<SimplePredicate field="double(0)" operator="lessOrEqual" value="1315036.5"/>
							</Node>
							<Node score="15.233536">
								<SimplePredicate field="double(2)" operator="lessOrEqual" value="82280.0"/>
							</Node>
						</Node>
						<Node score="22.80345614285714">
							<SimplePredicate field="double(0)" operator="lessOrEqual" value="1787473.5"/>
							<Node score="44.6305295">
								<SimplePredicate field="double(0)" operator="lessOrEqual" value="1371822.0"/>
							</Node>
							<Node score="21.564472847222223">
								<SimplePredicate field="double(2)" operator="lessOrEqual" value="109034.0"/>
								<Node score="17.535733108695652">
									<SimplePredicate field="double(2)" operator="lessOrEqual" value="95117.5"/>
								</Node>
							</Node>
							<Node score="50.34957">
								<SimplePredicate field="double(2)" operator="lessOrEqual" value="109632.5"/>
							</Node>
						</Node>
					</Node>
				</TreeModel>
			</Segment>
			<Segment id="5">
				<True/>
				<TreeModel functionName="regression" missingValueStrategy="nullPrediction" noTrueChildStrategy="returnLastPrediction">
					<MiningSchema>
						<MiningField name="double(0)"/>
						<MiningField name="double(2)"/>
					</MiningSchema>
					<Node score="22.296674384615383">
						<True/>
						<Node score="17.554659648148146">
							<SimplePredicate field="double(2)" operator="lessOrEqual" value="95292.5"/>
							<Node score="15.685887977272726">
								<SimplePredicate field="double(2)" operator="lessOrEqual" value="82071.0"/>
								<Node score="12.372377600000002">
									<SimplePredicate field="double(0)" operator="lessOrEqual" value="1073600.5"/>
									<Node score="11.213823999999999">
										<SimplePredicate field="double(2)" operator="lessOrEqual" value="64899.0"/>
										<Node score="12.479104">
											<SimplePredicate field="double(0)" operator="lessOrEqual" value="1034792.5"/>
										</Node>
									</Node>
									<Node score="13.724672">
										<SimplePredicate field="double(2)" operator="lessOrEqual" value="65193.5"/>
									</Node>
								</Node>
								<Node score="20.428801">
									<SimplePredicate field="double(0)" operator="lessOrEqual" value="1088902.5"/>
								</Node>
								<Node score="14.002312516666667">
									<SimplePredicate field="double(0)" operator="lessOrEqual" value="1259006.5"/>
								</Node>
							</Node>
							<Node score="22.848000499999998">
								<SimplePredicate field="double(0)" operator="lessOrEqual" value="1316120.5"/>
							</Node>
							<Node score="16.873898666666665">
								<SimplePredicate field="double(0)" operator="lessOrEqual" value="1366581.0"/>
								<Node score="15.373311849999999">
									<SimplePredicate field="double(2)" operator="lessOrEqual" value="84010.0"/>
								</Node>
							</Node>
							<Node score="44.6305295">
								<SimplePredicate field="double(2)" operator="lessOrEqual" value="85576.5"/>
							</Node>
						</Node>
						<Node score="30.601214999999996">
							<SimplePredicate field="double(0)" operator="lessOrEqual" value="1615750.5"/>
							<Node score="20.26035175">
								<SimplePredicate field="double(2)" operator="lessOrEqual" value="99740.5"/>
								<Node score="28.045824">
									<SimplePredicate field="double(2)" operator="lessOrEqual" value="95820.0"/>
								</Node>
								<Node score="18.002944">
									<SimplePredicate field="double(2)" operator="lessOrEqual" value="97734.5"/>
								</Node>
							</Node>
						</Node>
						<Node score="20.576768">
							<SimplePredicate field="double(0)" operator="lessOrEqual" value="1637279.5"/>
						</Node>
						<Node score="28.62848">
							<SimplePredicate field="double(2)" operator="lessOrEqual" value="102624.5"/>
							<Node score="22.532096">
								<SimplePredicate field="double(0)" operator="lessOrEqual" value="1641473.5"/>
							</Node>
						</Node>
						<Node score="20.664447625">
							<SimplePredicate field="double(0)" operator="lessOrEqual" value="1647773.0"/>
						</Node>
					</Node>
				</TreeModel>
			</Segment>
			<Segment id="6">
				<True/>
				<TreeModel functionName="regression" missingValueStrategy="nullPrediction" noTrueChildStrategy="returnLastPrediction">
					<MiningSchema>
						<MiningField name="double(0)"/>
						<MiningField name="double(2)"/>
					</MiningSchema>
					<Node score="54.5095665">
						<True/>
						<Node score="15.4354688">
							<SimplePredicate field="double(0)" operator="lessOrEqual" value="1313129.5"/>
							<Node score="12.160511999999999">
								<SimplePredicate field="double(0)" operator="lessOrEqual" value="1073577.5"/>
								<Node score="13.724672">
									<SimplePredicate field="double(2)" operator="lessOrEqual" value="65193.5"/>
									<Node score="12.537344000000001">
										<SimplePredicate field="double(0)" operator="lessOrEqual" value="1037557.5"/>
									</Node>
								</Node>
								<Node score="11.691008">
									<SimplePredicate field="double(0)" operator="lessOrEqual" value="1062721.5"/>
									<Node score="11.82464">
										<SimplePredicate field="double(0)" operator="lessOrEqual" value="1051284.0"/>
									</Node>
								</Node>
								<Node score="12.921344000000001">
									<SimplePredicate field="double(2)" operator="lessOrEqual" value="66855.5"/>
								</Node>
							</Node>
							<Node score="20.428801">
								<SimplePredicate field="double(2)" operator="lessOrEqual" value="67309.5"/>
							</Node>
							<Node score="14.166218092105261">
								<SimplePredicate field="double(2)" operator="lessOrEqual" value="78688.5"/>
								<Node score="13.010841599999997">
									<SimplePredicate field="double(0)" operator="lessOrEqual" value="1099899.0"/>
								</Node>
							</Node>
							<Node score="15.731541250000001">
								<SimplePredicate field="double(2)" operator="lessOrEqual" value="80363.0"/>
							</Node>
						</Node>
						<Node score="21.161971378048786">
							<SimplePredicate field="double(2)" operator="lessOrEqual" value="111085.5"/>
							<Node score="44.6305295">
								<SimplePredicate field="double(0)" operator="lessOrEqual" value="1369181.0"/>
								<Node score="16.409855500000003">
									<SimplePredicate field="double(0)" operator="lessOrEqual" value="1356423.0"/>
									<Node score="22.848000499999998">
										<SimplePredicate field="double(0)" operator="lessOrEqual" value="1316120.5"/>
									</Node>
								</Node>
							</Node>
							<Node score="17.870899283333333">
								<SimplePredicate field="double(0)" operator="lessOrEqual" value="1521873.5"/>
								<Node score="16.037522071428572">
									<SimplePredicate field="double(2)" operator="lessOrEqual" value="87351.0"/>
								</Node>
							</Node>
							<Node score="28.045824">
								<SimplePredicate field="double(2)" operator="lessOrEqual" value="95578.0"/>
							</Node>
						</Node>
					</Node>
				</TreeModel>
			</Segment>
			<Segment id="7">
				<True/>
				<TreeModel functionName="regression" missingValueStrategy="nullPrediction" noTrueChildStrategy="returnLastPrediction">
					<MiningSchema>
						<MiningField name="double(0)"/>
						<MiningField name="double(2)"/>
					</MiningSchema>
					<Node score="22.63705585">
						<True/>
						<Node score="18.023862642857143">
							<SimplePredicate field="double(2)" operator="lessOrEqual" value="98257.0"/>
							<Node score="14.286591964285716">
								<SimplePredicate field="double(0)" operator="lessOrEqual" value="1244277.5"/>
								<Node score="12.160511999999999">
									<SimplePredicate field="double(0)" operator="lessOrEqual" value="1073577.5"/>
									<Node score="11.554218666666666">
										<SimplePredicate field="double(0)" operator="lessOrEqual" value="1062721.5"/>
										<Node score="12.537344000000001">
											<SimplePredicate field="double(0)" operator="lessOrEqual" value="1034792.5"/>
										</Node>
									</Node>
									<Node score="12.921344000000001">
										<SimplePredicate field="double(0)" operator="lessOrEqual" value="1069679.5"/>
									</Node>
								</Node>
								<Node score="20.428801">
									<SimplePredicate field="double(0)" operator="lessOrEqual" value="1076943.5"/>
								</Node>
								<Node score="13.479196444444447">
									<SimplePredicate field="double(0)" operator="lessOrEqual" value="1137340.5"/>
								</Node>
							</Node>
							<Node score="16.549546666666668">
								<SimplePredicate field="double(0)" operator="lessOrEqual" value="1405079.5"/>
								<Node score="15.077888">
									<SimplePredicate field="double(0)" operator="lessOrEqual" value="1280310.5"/>
									<Node score="15.286272000000002">
										<SimplePredicate field="double(0)" operator="lessOrEqual" value="1269994.5"/>
									</Node>
								</Node>
								<Node score="15.952428500000002">
									<SimplePredicate field="double(0)" operator="lessOrEqual" value="1373455.0"/>
								</Node>
							</Node>
							<Node score="17.118361650000004">
								<SimplePredicate field="double(2)" operator="lessOrEqual" value="93222.0"/>
								<Node score="17.918976">
									<SimplePredicate field="double(0)" operator="lessOrEqual" value="1426066.0"/>
								</Node>
							</Node>
							<Node score="19.261439499999998">
								<SimplePredicate field="double(2)" operator="lessOrEqual" value="94138.0"/>
							</Node>
						</Node>
						<Node score="30.601214999999996">
							<SimplePredicate field="double(2)" operator="lessOrEqual" value="100078.0"/>
							<Node score="21.2029435">
								<SimplePredicate field="double(0)" operator="lessOrEqual" value="1587753.5"/>
							</Node>
						</Node>
						<Node score="20.086272333333334">
							<SimplePredicate field="double(0)" operator="lessOrEqual" value="1685465.5"/>
							<Node score="19.220480000000002">
								<SimplePredicate field="double(0)" operator="lessOrEqual" value="1608252.5"/>
							</Node>
							<Node score="22.11612248275862">
								<SimplePredicate field="double(0)" operator="lessOrEqual" value="1683058.5"/>
							</Node>
						</Node>
						<Node score="55.535105">
							<SimplePredicate field="double(0)" operator="lessOrEqual" value="1692709.0"/>
						</Node>
						<Node score="21.995656333333333">
							<SimplePredicate field="double(2)" operator="lessOrEqual" value="108511.0"/>
						</Node>
					</Node>
				</TreeModel>
			</Segment>
			<Segment id="8">
				<True/>
				<TreeModel functionName="regression" missingValueStrategy="nullPrediction" noTrueChildStrategy="returnLastPrediction">
					<MiningSchema>
						<MiningField name="double(0)"/>
						<MiningField name="double(2)"/>
					</MiningSchema>
					<Node score="54.5095665">
						<True/>
						<Node score="19.9480325">
							<SimplePredicate field="double(0)" operator="lessOrEqual" value="1685465.5"/>
							<Node score="16.826514428571432">
								<SimplePredicate field="double(0)" operator="lessOrEqual" value="1451826.0"/>
								<Node score="14.332671970588235">
									<SimplePredicate field="double(0)" operator="lessOrEqual" value="1254990.5"/>
									<Node score="12.667733333333333">
										<SimplePredicate field="double(2)" operator="lessOrEqual" value="67176.5"/>
										<Node score="12.160073142857142">
											<SimplePredicate field="double(2)" operator="lessOrEqual" value="66420.5"/>
										</Node>
									</Node>
									<Node score="13.481813333333333">
										<SimplePredicate field="double(0)" operator="lessOrEqual" value="1091181.0"/>
									</Node>
								</Node>
								<Node score="15.606579166666668">
									<SimplePredicate field="double(2)" operator="lessOrEqual" value="87486.0"/>
									<Node score="16.448465363636362">
										<SimplePredicate field="double(2)" operator="lessOrEqual" value="82388.5"/>
									</Node>
								</Node>
								<Node score="18.094848">
									<SimplePredicate field="double(2)" operator="lessOrEqual" value="89130.0"/>
								</Node>
							</Node>
							<Node score="18.803199833333338">
								<SimplePredicate field="double(2)" operator="lessOrEqual" value="100516.5"/>
								<Node score="17.304575999999997">
									<SimplePredicate field="double(0)" operator="lessOrEqual" value="1481534.0"/>
									<Node score="18.9322245">
										<SimplePredicate field="double(2)" operator="lessOrEqual" value="91764.5"/>
									</Node>
								</Node>
								<Node score="20.69282158333333">
									<SimplePredicate field="double(0)" operator="lessOrEqual" value="1529242.5"/>
								</Node>
							</Node>
							<Node score="26.817024">
								<SimplePredicate field="double(0)" operator="lessOrEqual" value="1683058.5"/>
								<Node score="20.9661952">
									<SimplePredicate field="double(2)" operator="lessOrEqual" value="105127.0"/>
								</Node>
							</Node>
							<Node score="20.362752">
								<SimplePredicate field="double(2)" operator="lessOrEqual" value="105236.0"/>
							</Node>
						</Node>
						<Node score="55.535105">
							<SimplePredicate field="double(0)" operator="lessOrEqual" value="1688269.0"/>
						</Node>
						<Node score="23.0471675">
							<SimplePredicate field="double(0)" operator="lessOrEqual" value="1738526.5"/>
							<Node score="22.10432">
								<SimplePredicate field="double(0)" operator="lessOrEqual" value="1718738.0"/>
								<Node score="21.457408200000003">
									<SimplePredicate field="double(2)" operator="lessOrEqual" value="106519.5"/>
								</Node>
							</Node>
						</Node>
						<Node score="50.34957">
							<SimplePredicate field="double(0)" operator="lessOrEqual" value="1753843.0"/>
						</Node>
						<Node score="23.029845666666663">
							<SimplePredicate field="double(0)" operator="lessOrEqual" value="1787473.5"/>
						</Node>
					</Node>
				</TreeModel>
			</Segment>
			<Segment id="9">
				<True/>
				<TreeModel functionName="regression" missingValueStrategy="nullPrediction" noTrueChildStrategy="returnLastPrediction">
					<MiningSchema>
						<MiningField name="double(0)"/>
						<MiningField name="double(2)"/>
					</MiningSchema>
					<Node score="54.5095665">
						<True/>
						<Node score="19.18395683333333">
							<SimplePredicate field="double(2)" operator="lessOrEqual" value="95292.5"/>
							<Node score="15.339178666666667">
								<SimplePredicate field="double(2)" operator="lessOrEqual" value="78942.5"/>
								<Node score="12.26624">
									<SimplePredicate field="double(2)" operator="lessOrEqual" value="67100.5"/>
									<Node score="13.724672000000002">
										<SimplePredicate field="double(0)" operator="lessOrEqual" value="1054524.5"/>
										<Node score="12.537344000000001">
											<SimplePredicate field="double(0)" operator="lessOrEqual" value="1037557.5"/>
										</Node>
									</Node>
									<Node score="12.921344000000001">
										<SimplePredicate field="double(0)" operator="lessOrEqual" value="1069679.5"/>
									</Node>
								</Node>
								<Node score="20.428801">
									<SimplePredicate field="double(2)" operator="lessOrEqual" value="67309.5"/>
								</Node>
								<Node score="14.022109849999998">
									<SimplePredicate field="double(0)" operator="lessOrEqual" value="1218792.5"/>
								</Node>
							</Node>
							<Node score="16.331702904761904">
								<SimplePredicate field="double(2)" operator="lessOrEqual" value="90740.0"/>
								<Node score="15.857960368421052">
									<SimplePredicate field="double(2)" operator="lessOrEqual" value="84165.0"/>
									<Node score="16.810780444444443">
										<SimplePredicate field="double(2)" operator="lessOrEqual" value="80573.5"/>
									</Node>
								</Node>
								<Node score="21.073408">
									<SimplePredicate field="double(2)" operator="lessOrEqual" value="84525.0"/>
								</Node>
							</Node>
							<Node score="18.9322245">
								<SimplePredicate field="double(2)" operator="lessOrEqual" value="91853.0"/>
							</Node>
							<Node score="19.864064499999998">
								<SimplePredicate field="double(0)" operator="lessOrEqual" value="1492956.5"/>
							</Node>
						</Node>
						<Node score="28.453478949999997">
							<SimplePredicate field="double(2)" operator="lessOrEqual" value="111717.5"/>
							<Node score="22.6152675">
								<SimplePredicate field="double(2)" operator="lessOrEqual" value="105342.0"/>
								<Node score="28.045824">
									<SimplePredicate field="double(0)" operator="lessOrEqual" value="1529242.5"/>
								</Node>
								<Node score="19.735892944444444">
									<SimplePredicate field="double(2)" operator="lessOrEqual" value="99740.5"/>
								</Node>
							</Node>
							<Node score="55.535105">
								<SimplePredicate field="double(0)" operator="lessOrEqual" value="1688083.0"/>
							</Node>
							<Node score="21.85471989285714">
								<SimplePredicate field="double(2)" operator="lessOrEqual" value="109001.0"/>
							</Node>
						</Node>
					</Node>
				</TreeModel>
			</Segment>
			<Segment id="10">
				<True/>
				<TreeModel functionName="regression" missingValueStrategy="nullPrediction" noTrueChildStrategy="returnLastPrediction">
					<MiningSchema>
						<MiningField name="double(0)"/>
						<MiningField name="double(2)"/>
					</MiningSchema>
					<Node score="21.680128">
						<True/>
						<Node score="17.579032476190473">
							<SimplePredicate field="double(0)" operator="lessOrEqual" value="1521228.0"/>
							<Node score="13.974143999999999">
								<SimplePredicate field="double(0)" operator="lessOrEqual" value="1263124.0"/>
								<Node score="13.609813333333333">
									<SimplePredicate field="double(0)" operator="lessOrEqual" value="1138414.5"/>
									<Node score="12.584587636363636">
										<SimplePredicate field="double(0)" operator="lessOrEqual" value="1077284.5"/>
										<Node score="11.213823999999999">
											<SimplePredicate field="double(0)" operator="lessOrEqual" value="1038377.0"/>
										</Node>
									</Node>
									<Node score="13.200064">
										<SimplePredicate field="double(2)" operator="lessOrEqual" value="68745.0"/>
									</Node>
								</Node>
								<Node score="17.1412475">
									<SimplePredicate field="double(2)" operator="lessOrEqual" value="71929.0"/>
								</Node>
								<Node score="14.863945000000001">
									<SimplePredicate field="double(2)" operator="lessOrEqual" value="75039.5"/>
								</Node>
							</Node>
							<Node score="15.537810285714286">
								<SimplePredicate field="double(0)" operator="lessOrEqual" value="1313129.5"/>
								<Node score="18.1760004">
									<SimplePredicate field="double(2)" operator="lessOrEqual" value="80465.0"/>
									<Node score="15.922943875">
										<SimplePredicate field="double(0)" operator="lessOrEqual" value="1285155.5"/>
									</Node>
								</Node>
								<Node score="14.257663999999998">
									<SimplePredicate field="double(0)" operator="lessOrEqual" value="1292323.0"/>
								</Node>
							</Node>
							<Node score="22.848000499999998">
								<SimplePredicate field="double(2)" operator="lessOrEqual" value="82258.0"/>
							</Node>
							<Node score="16.024234571428572">
								<SimplePredicate field="double(0)" operator="lessOrEqual" value="1392301.0"/>
							</Node>
						</Node>
						<Node score="22.045980277777776">
							<SimplePredicate field="double(2)" operator="lessOrEqual" value="108511.0"/>
							<Node score="28.045824">
								<SimplePredicate field="double(2)" operator="lessOrEqual" value="95578.0"/>
								<Node score="19.0289915">
									<SimplePredicate field="double(2)" operator="lessOrEqual" value="95292.5"/>
								</Node>
							</Node>
							<Node score="18.856448">
								<SimplePredicate field="double(2)" operator="lessOrEqual" value="99006.0"/>
								<Node score="17.821695833333333">
									<SimplePredicate field="double(2)" operator="lessOrEqual" value="98382.0"/>
								</Node>
							</Node>
							<Node score="21.13017339130435">
								<SimplePredicate field="double(2)" operator="lessOrEqual" value="106102.0"/>
							</Node>
						</Node>
						<Node score="50.34957">
							<SimplePredicate field="double(2)" operator="lessOrEqual" value="109632.5"/>
							<Node score="23.5929595">
								<SimplePredicate field="double(0)" operator="lessOrEqual" value="1744540.0"/>
							</Node>
						</Node>
						<Node score="23.022592000000003">
							<SimplePredicate field="double(2)" operator="lessOrEqual" value="110281.0"/>
							<Node score="22.794240000000002">
								<SimplePredicate field="double(0)" operator="lessOrEqual" value="1758432.5"/>
							</Node>
						</Node>
					</Node>
				</TreeModel>
			</Segment>
			<Segment id="11">
				<True/>
				<TreeModel functionName="regression" missingValueStrategy="nullPrediction" noTrueChildStrategy="returnLastPrediction">
					<MiningSchema>
						<MiningField name="double(0)"/>
						<MiningField name="double(2)"/>
					</MiningSchema>
					<Node score="54.5095665">
						<True/>
						<Node score="22.136760819444444">
							<SimplePredicate field="double(0)" operator="lessOrEqual" value="1787473.5"/>
							<Node score="18.434413928571427">
								<SimplePredicate field="double(2)" operator="lessOrEqual" value="95292.5"/>
								<Node score="14.185952954545455">
									<SimplePredicate field="double(2)" operator="lessOrEqual" value="79197.0"/>
									<Node score="12.084428800000001">
										<SimplePredicate field="double(0)" operator="lessOrEqual" value="1073577.5"/>
										<Node score="12.717696">
											<SimplePredicate field="double(0)" operator="lessOrEqual" value="1043087.0"/>
										</Node>
									</Node>
									<Node score="20.428801">
										<SimplePredicate field="double(2)" operator="lessOrEqual" value="67253.5"/>
									</Node>
								</Node>
								<Node score="16.15534786206896">
									<SimplePredicate field="double(2)" operator="lessOrEqual" value="87817.5"/>
									<Node score="16.965247975">
										<SimplePredicate field="double(2)" operator="lessOrEqual" value="82298.5"/>
									</Node>
								</Node>
								<Node score="17.59948790909091">
									<SimplePredicate field="double(0)" operator="lessOrEqual" value="1449418.5"/>
								</Node>
							</Node>
							<Node score="28.045824">
								<SimplePredicate field="double(0)" operator="lessOrEqual" value="1551460.0"/>
							</Node>
							<Node score="19.1191035">
								<SimplePredicate field="double(0)" operator="lessOrEqual" value="1595840.5"/>
								<Node score="21.302271750000003">
									<SimplePredicate field="double(0)" operator="lessOrEqual" value="1590179.5"/>
								</Node>
							</Node>
							<Node score="30.601214999999996">
								<SimplePredicate field="double(2)" operator="lessOrEqual" value="100078.0"/>
							</Node>
						</Node>
					</Node>
				</TreeModel>
			</Segment>
			<Segment id="12">
				<True/>
				<TreeModel functionName="regression" missingValueStrategy="nullPrediction" noTrueChildStrategy="returnLastPrediction">
					<MiningSchema>
						<MiningField name="double(0)"/>
						<MiningField name="double(2)"/>
					</MiningSchema>
					<Node score="54.5095665">
						<True/>
						<Node score="18.396479625">
							<SimplePredicate field="double(2)" operator="lessOrEqual" value="99006.0"/>
							<Node score="15.6695405">
								<SimplePredicate field="double(2)" operator="lessOrEqual" value="84093.0"/>
								<Node score="14.31367676">
									<SimplePredicate field="double(2)" operator="lessOrEqual" value="78437.5"/>
									<Node score="13.602247166666666">
										<SimplePredicate field="double(2)" operator="lessOrEqual" value="71151.0"/>
										<Node score="12.350207999999999">
											<SimplePredicate field="double(0)" operator="lessOrEqual" value="1073577.5"/>
										</Node>
									</Node>
									<Node score="17.1412475">
										<SimplePredicate field="double(0)" operator="lessOrEqual" value="1150861.0"/>
									</Node>
								</Node>
								<Node score="15.077888">
									<SimplePredicate field="double(0)" operator="lessOrEqual" value="1277120.0"/>
									<Node score="15.223808">
										<SimplePredicate field="double(2)" operator="lessOrEqual" value="79375.0"/>
									</Node>
								</Node>
								<Node score="17.086054499999996">
									<SimplePredicate field="double(2)" operator="lessOrEqual" value="80465.0"/>
								</Node>
							</Node>
							<Node score="44.6305295">
								<SimplePredicate field="double(0)" operator="lessOrEqual" value="1369181.0"/>
								<Node score="16.0150528">
									<SimplePredicate field="double(2)" operator="lessOrEqual" value="85411.5"/>
									<Node score="21.073408">
										<SimplePredicate field="double(0)" operator="lessOrEqual" value="1352389.5"/>
									</Node>
								</Node>
							</Node>
							<Node score="16.349439583333332">
								<SimplePredicate field="double(0)" operator="lessOrEqual" value="1405648.0"/>
								<Node score="15.963135999999999">
									<SimplePredicate field="double(0)" operator="lessOrEqual" value="1370852.5"/>
								</Node>
							</Node>
							<Node score="17.779302733333335">
								<SimplePredicate field="double(2)" operator="lessOrEqual" value="94129.0"/>
							</Node>
						</Node>
						<Node score="22.63370472727273">
							<SimplePredicate field="double(2)" operator="lessOrEqual" value="111717.5"/>
							<Node score="21.370016156250003">
								<SimplePredicate field="double(0)" operator="lessOrEqual" value="1685465.5"/>
								<Node score="30.601214999999996">
									<SimplePredicate field="double(0)" operator="lessOrEqual" value="1601236.0"/>
									<Node score="21.401600000000002">
										<SimplePredicate field="double(0)" operator="lessOrEqual" value="1592247.0"/>
									</Node>
								</Node>
								<Node score="20.4249965">
									<SimplePredicate field="double(0)" operator="lessOrEqual" value="1634172.5"/>
								</Node>
							</Node>
							<Node score="55.53510500000001">
								<SimplePredicate field="double(2)" operator="lessOrEqual" value="105794.5"/>
							</Node>
							<Node score="21.4719145">
								<SimplePredicate field="double(0)" operator="lessOrEqual" value="1718738.0"/>
							</Node>
						</Node>
					</Node>
				</TreeModel>
			</Segment>
			<Segment id="13">
				<True/>
				<TreeModel functionName="regression" missingValueStrategy="nullPrediction" noTrueChildStrategy="returnLastPrediction">
					<MiningSchema>
						<MiningField name="double(0)"/>
						<MiningField name="double(2)"/>
					</MiningSchema>
					<Node score="54.5095665">
						<True/>
						<Node score="19.0289915">
							<SimplePredicate field="double(2)" operator="lessOrEqual" value="95292.5"/>
							<Node score="14.529915838709673">
								<SimplePredicate field="double(0)" operator="lessOrEqual" value="1254867.0"/>
								<Node score="12.350719999999999">
									<SimplePredicate field="double(0)" operator="lessOrEqual" value="1073577.5"/>
									<Node score="11.213823999999999">
										<SimplePredicate field="double(2)" operator="lessOrEqual" value="65020.5"/>
									</Node>
									<Node score="11.82464">
										<SimplePredicate field="double(0)" operator="lessOrEqual" value="1056469.5"/>
									</Node>
								</Node>
								<Node score="20.428801">
									<SimplePredicate field="double(0)" operator="lessOrEqual" value="1076044.0"/>
								</Node>
								<Node score="13.283886545454545">
									<SimplePredicate field="double(0)" operator="lessOrEqual" value="1134708.0"/>
								</Node>
							</Node>
							<Node score="16.56619105263158">
								<SimplePredicate field="double(2)" operator="lessOrEqual" value="90740.0"/>
								<Node score="15.5111039375">
									<SimplePredicate field="double(0)" operator="lessOrEqual" value="1344095.5"/>
									<Node score="16.45308778125">
										<SimplePredicate field="double(0)" operator="lessOrEqual" value="1318208.5"/>
									</Node>
								</Node>
								<Node score="21.073408">
									<SimplePredicate field="double(0)" operator="lessOrEqual" value="1352389.5"/>
								</Node>
							</Node>
							<Node score="18.9322245">
								<SimplePredicate field="double(0)" operator="lessOrEqual" value="1479644.5"/>
							</Node>
							<Node score="19.261439499999998">
								<SimplePredicate field="double(2)" operator="lessOrEqual" value="94594.0"/>
							</Node>
						</Node>
						<Node score="22.519295857142854">
							<SimplePredicate field="double(2)" operator="lessOrEqual" value="111717.5"/>
							<Node score="21.94801260606061">
								<SimplePredicate field="double(0)" operator="lessOrEqual" value="1685465.5"/>
								<Node score="28.045824">
									<SimplePredicate field="double(0)" operator="lessOrEqual" value="1529242.5"/>
								</Node>
								<Node score="18.50536214285714">
									<SimplePredicate field="double(0)" operator="lessOrEqual" value="1584088.5"/>
								</Node>
							</Node>
							<Node score="55.535105">
								<SimplePredicate field="double(2)" operator="lessOrEqual" value="105517.0"/>
							</Node>
							<Node score="21.9207679">
								<SimplePredicate field="double(0)" operator="lessOrEqual" value="1704303.5"/>
							</Node>
						</Node>
					</Node>
				</TreeModel>
			</Segment>
			<Segment id="14">
				<True/>
				<TreeModel functionName="regression" missingValueStrategy="nullPrediction" noTrueChildStrategy="returnLastPrediction">
					<MiningSchema>
						<MiningField name="double(0)"/>
						<MiningField name="double(2)"/>
					</MiningSchema>
					<Node score="54.5095665">
						<True/>
						<Node score="19.281919833333333">
							<SimplePredicate field="double(2)" operator="lessOrEqual" value="101547.5"/>
							<Node score="14.387908846153845">
								<SimplePredicate field="double(0)" operator="lessOrEqual" value="1223957.0"/>
								<Node score="12.814592000000001">
									<SimplePredicate field="double(2)" operator="lessOrEqual" value="68745.0"/>
									<Node score="12.0577024">
										<SimplePredicate field="double(0)" operator="lessOrEqual" value="1074818.0"/>
										<Node score="12.420864">
											<SimplePredicate field="double(0)" operator="lessOrEqual" value="1039502.5"/>
										</Node>
									</Node>
									<Node score="13.629696">
										<SimplePredicate field="double(0)" operator="lessOrEqual" value="1080971.0"/>
									</Node>
								</Node>
								<Node score="13.018112">
									<SimplePredicate field="double(0)" operator="lessOrEqual" value="1138414.5"/>
									<Node score="14.20416">
										<SimplePredicate field="double(2)" operator="lessOrEqual" value="70218.5"/>
									</Node>
								</Node>
								<Node score="17.1412475">
									<SimplePredicate field="double(0)" operator="lessOrEqual" value="1146534.5"/>
								</Node>
							</Node>
							<Node score="16.29528066">
								<SimplePredicate field="double(2)" operator="lessOrEqual" value="90740.0"/>
								<Node score="15.596404363636365">
									<SimplePredicate field="double(2)" operator="lessOrEqual" value="82071.0"/>
									<Node score="16.245247944444444">
										<SimplePredicate field="double(2)" operator="lessOrEqual" value="80453.5"/>
									</Node>
								</Node>
								<Node score="22.848000499999998">
									<SimplePredicate field="double(0)" operator="lessOrEqual" value="1315036.5"/>
								</Node>
							</Node>
							<Node score="17.773112833333332">
								<SimplePredicate field="double(2)" operator="lessOrEqual" value="99006.0"/>
								<Node score="18.79233427777778">
									<SimplePredicate field="double(2)" operator="lessOrEqual" value="94138.0"/>
								</Node>
							</Node>
							<Node score="21.401600000000002">
								<SimplePredicate field="double(2)" operator="lessOrEqual" value="99386.5"/>
							</Node>
						</Node>
						<Node score="22.832127500000002">
							<SimplePredicate field="double(0)" operator="lessOrEqual" value="1777358.5"/>
							<Node score="22.291071875">
								<SimplePredicate field="double(0)" operator="lessOrEqual" value="1739805.0"/>
								<Node score="28.62848">
									<SimplePredicate field="double(2)" operator="lessOrEqual" value="102624.5"/>
									<Node score="21.26643208333333">
										<SimplePredicate field="double(0)" operator="lessOrEqual" value="1641473.5"/>
									</Node>
								</Node>
								<Node score="21.38121615625">
									<SimplePredicate field="double(2)" operator="lessOrEqual" value="106136.5"/>
								</Node>
							</Node>
							<Node score="50.34957">
								<SimplePredicate field="double(0)" operator="lessOrEqual" value="1753843.0"/>
							</Node>
							<Node score="22.670464374999998">
								<SimplePredicate field="double(0)" operator="lessOrEqual" value="1761347.5"/>
							</Node>
						</Node>
					</Node>
				</TreeModel>
			</Segment>
			<Segment id="15">
				<True/>
				<TreeModel functionName="regression" missingValueStrategy="nullPrediction" noTrueChildStrategy="returnLastPrediction">
					<MiningSchema>
						<MiningField name="double(0)"/>
						<MiningField name="double(2)"/>
					</MiningSchema>
					<Node score="54.5095665">
						<True/>
						<Node score="22.734729794871793">
							<SimplePredicate field="double(2)" operator="lessOrEqual" value="111127.5"/>
							<Node score="16.261339214285716">
								<SimplePredicate field="double(2)" operator="lessOrEqual" value="87924.5"/>
								<Node score="13.991628759999996">
									<SimplePredicate field="double(2)" operator="lessOrEqual" value="76175.0"/>
									<Node score="11.92576">
										<SimplePredicate field="double(0)" operator="lessOrEqual" value="1073577.5"/>
										<Node score="13.014527999999999">
											<SimplePredicate field="double(0)" operator="lessOrEqual" value="1049339.0"/>
										</Node>
									</Node>
									<Node score="20.428801">
										<SimplePredicate field="double(0)" operator="lessOrEqual" value="1076044.0"/>
									</Node>
								</Node>
								<Node score="16.1724800625">
									<SimplePredicate field="double(2)" operator="lessOrEqual" value="84165.0"/>
									<Node score="15.590399984374997">
										<SimplePredicate field="double(2)" operator="lessOrEqual" value="82754.5"/>
									</Node>
								</Node>
								<Node score="21.073408">
									<SimplePredicate field="double(2)" operator="lessOrEqual" value="84573.0"/>
								</Node>
							</Node>
							<Node score="19.168938333333333">
								<SimplePredicate field="double(0)" operator="lessOrEqual" value="1595840.5"/>
								<Node score="18.177023875">
									<SimplePredicate field="double(0)" operator="lessOrEqual" value="1524675.5"/>
									<Node score="18.921756499999997">
										<SimplePredicate field="double(2)" operator="lessOrEqual" value="94138.0"/>
									</Node>
								</Node>
								<Node score="28.045824">
									<SimplePredicate field="double(2)" operator="lessOrEqual" value="95578.0"/>
								</Node>
							</Node>
							<Node score="30.601214999999996">
								<SimplePredicate field="double(2)" operator="lessOrEqual" value="100078.0"/>
							</Node>
							<Node score="20.291218214285713">
								<SimplePredicate field="double(2)" operator="lessOrEqual" value="102136.0"/>
							</Node>
						</Node>
					</Node>
				</TreeModel>
			</Segment>
			<Segment id="16">
				<True/>
				<TreeModel functionName="regression" missingValueStrategy="nullPrediction" noTrueChildStrategy="returnLastPrediction">
					<MiningSchema>
						<MiningField name="double(0)"/>
						<MiningField name="double(2)"/>
					</MiningSchema>
					<Node score="22.200832000000002">
						<True/>
						<Node score="18.224820911764706">
							<SimplePredicate field="double(2)" operator="lessOrEqual" value="97134.5"/>
							<Node score="15.125430857142858">
								<SimplePredicate field="double(0)" operator="lessOrEqual" value="1265634.5"/>
								<Node score="12.403858285714287">
									<SimplePredicate field="double(0)" operator="lessOrEqual" value="1077284.5"/>
									<Node score="11.213823999999997">
										<SimplePredicate field="double(0)" operator="lessOrEqual" value="1038377.0"/>
										<Node score="12.459690666666667">
											<SimplePredicate field="double(2)" operator="lessOrEqual" value="64675.0"/>
										</Node>
									</Node>
									<Node score="13.724672">
										<SimplePredicate field="double(2)" operator="lessOrEqual" value="65193.5"/>
									</Node>
								</Node>
								<Node score="12.921856">
									<SimplePredicate field="double(0)" operator="lessOrEqual" value="1146755.0"/>
									<Node score="13.78133333333333">
										<SimplePredicate field="double(2)" operator="lessOrEqual" value="70218.5"/>
									</Node>
								</Node>
								<Node score="14.304733866666664">
									<SimplePredicate field="double(2)" operator="lessOrEqual" value="75675.5"/>
								</Node>
							</Node>
							<Node score="16.065365083333333">
								<SimplePredicate field="double(0)" operator="lessOrEqual" value="1346629.5"/>
								<Node score="22.848000499999998">
									<SimplePredicate field="double(2)" operator="lessOrEqual" value="82190.0"/>
									<Node score="16.4161095">
										<SimplePredicate field="double(2)" operator="lessOrEqual" value="81608.0"/>
									</Node>
								</Node>
								<Node score="15.233536">
									<SimplePredicate field="double(2)" operator="lessOrEqual" value="82280.0"/>
								</Node>
							</Node>
							<Node score="44.6305295">
								<SimplePredicate field="double(2)" operator="lessOrEqual" value="85739.0"/>
								<Node score="18.386944">
									<SimplePredicate field="double(2)" operator="lessOrEqual" value="85411.5"/>
								</Node>
							</Node>
							<Node score="17.118902892857143">
								<SimplePredicate field="double(2)" operator="lessOrEqual" value="90740.0"/>
							</Node>
						</Node>
						<Node score="55.535105">
							<SimplePredicate field="double(0)" operator="lessOrEqual" value="1688083.0"/>
							<Node score="22.00375863636364">
								<SimplePredicate field="double(0)" operator="lessOrEqual" value="1685465.5"/>
								<Node score="19.1191035">
									<SimplePredicate field="double(2)" operator="lessOrEqual" value="99740.5"/>
									<Node score="21.0566141">
										<SimplePredicate field="double(0)" operator="lessOrEqual" value="1590179.5"/>
									</Node>
								</Node>
								<Node score="30.601214999999996">
									<SimplePredicate field="double(0)" operator="lessOrEqual" value="1601236.0"/>
								</Node>
							</Node>
						</Node>
						<Node score="20.4922875">
							<SimplePredicate field="double(2)" operator="lessOrEqual" value="106519.5"/>
							<Node score="21.849216250000005">
								<SimplePredicate field="double(0)" operator="lessOrEqual" value="1701593.0"/>
								<Node score="22.524928">
									<SimplePredicate field="double(0)" operator="lessOrEqual" value="1689827.0"/>
								</Node>
							</Node>
						</Node>
						<Node score="22.143487999999998">
							<SimplePredicate field="double(0)" operator="lessOrEqual" value="1728638.0"/>
							<Node score="22.616405166666667">
								<SimplePredicate field="double(0)" operator="lessOrEqual" value="1725950.5"/>
							</Node>
						</Node>
						<Node score="23.019136">
							<SimplePredicate field="double(2)" operator="lessOrEqual" value="110281.0"/>
						</Node>
					</Node>
				</TreeModel>
			</Segment>
			<Segment id="17">
				<True/>
				<TreeModel functionName="regression" missingValueStrategy="nullPrediction" noTrueChildStrategy="returnLastPrediction">
					<MiningSchema>
						<MiningField name="double(0)"/>
						<MiningField name="double(2)"/>
					</MiningSchema>
					<Node score="22.649344499999998">
						<True/>
						<Node score="17.911936">
							<SimplePredicate field="double(0)" operator="lessOrEqual" value="1366581.0"/>
							<Node score="15.095296">
								<SimplePredicate field="double(0)" operator="lessOrEqual" value="1263124.0"/>
								<Node score="12.939946666666666">
									<SimplePredicate field="double(2)" operator="lessOrEqual" value="68745.0"/>
									<Node score="12.591104">
										<SimplePredicate field="double(0)" operator="lessOrEqual" value="1077284.5"/>
										<Node score="12.036915200000001">
											<SimplePredicate field="double(2)" operator="lessOrEqual" value="66295.0"/>
										</Node>
									</Node>
									<Node score="13.629696">
										<SimplePredicate field="double(2)" operator="lessOrEqual" value="67561.0"/>
									</Node>
								</Node>
								<Node score="15.101887812500001">
									<SimplePredicate field="double(2)" operator="lessOrEqual" value="74116.0"/>
									<Node score="14.480895954545453">
										<SimplePredicate field="double(2)" operator="lessOrEqual" value="73389.0"/>
									</Node>
								</Node>
								<Node score="13.843899733333334">
									<SimplePredicate field="double(2)" operator="lessOrEqual" value="75675.5"/>
								</Node>
							</Node>
							<Node score="15.424227555555555">
								<SimplePredicate field="double(0)" operator="lessOrEqual" value="1313129.5"/>
								<Node score="17.5134715">
									<SimplePredicate field="double(2)" operator="lessOrEqual" value="79785.5"/>
									<Node score="16.7761915">
										<SimplePredicate field="double(0)" operator="lessOrEqual" value="1273713.5"/>
									</Node>
								</Node>
								<Node score="15.76567466666667">
									<SimplePredicate field="double(0)" operator="lessOrEqual" value="1285800.0"/>
								</Node>
							</Node>
							<Node score="22.848000499999998">
								<SimplePredicate field="double(2)" operator="lessOrEqual" value="82258.0"/>
							</Node>
							<Node score="15.823744041666666">
								<SimplePredicate field="double(0)" operator="lessOrEqual" value="1346629.5"/>
							</Node>
						</Node>
						<Node score="44.6305295">
							<SimplePredicate field="double(0)" operator="lessOrEqual" value="1371822.0"/>
						</Node>
						<Node score="22.022096000000005">
							<SimplePredicate field="double(2)" operator="lessOrEqual" value="109001.0"/>
							<Node score="20.048676214285713">
								<SimplePredicate field="double(2)" operator="lessOrEqual" value="99006.0"/>
								<Node score="18.028223999999998">
									<SimplePredicate field="double(2)" operator="lessOrEqual" value="97938.0"/>
								</Node>
							</Node>
							<Node score="26.0014075">
								<SimplePredicate field="double(0)" operator="lessOrEqual" value="1610171.5"/>
							</Node>
						</Node>
						<Node score="50.34957">
							<SimplePredicate field="double(0)" operator="lessOrEqual" value="1753843.0"/>
						</Node>
						<Node score="22.750464125">
							<SimplePredicate field="double(2)" operator="lessOrEqual" value="109835.5"/>
						</Node>
					</Node>
				</TreeModel>
			</Segment>
			<Segment id="18">
				<True/>
				<TreeModel functionName="regression" missingValueStrategy="nullPrediction" noTrueChildStrategy="returnLastPrediction">
					<MiningSchema>
						<MiningField name="double(0)"/>
						<MiningField name="double(2)"/>
					</MiningSchema>
					<Node score="23.24224">
						<True/>
						<Node score="18.081353">
							<SimplePredicate field="double(0)" operator="lessOrEqual" value="1567002.0"/>
							<Node score="14.290207937499998">
								<SimplePredicate field="double(2)" operator="lessOrEqual" value="76497.5"/>
								<Node score="12.519850666666665">
									<SimplePredicate field="double(2)" operator="lessOrEqual" value="67100.5"/>
									<Node score="11.213823999999999">
										<SimplePredicate field="double(0)" operator="lessOrEqual" value="1038377.0"/>
										<Node score="12.537344000000001">
											<SimplePredicate field="double(2)" operator="lessOrEqual" value="64675.0"/>
										</Node>
									</Node>
									<Node score="13.724672">
										<SimplePredicate field="double(2)" operator="lessOrEqual" value="65908.5"/>
									</Node>
								</Node>
								<Node score="20.428801">
									<SimplePredicate field="double(0)" operator="lessOrEqual" value="1078070.5"/>
								</Node>
								<Node score="13.30799709090909">
									<SimplePredicate field="double(2)" operator="lessOrEqual" value="71084.0"/>
								</Node>
							</Node>
							<Node score="16.677376181818186">
								<SimplePredicate field="double(0)" operator="lessOrEqual" value="1451826.0"/>
								<Node score="15.929995613636363">
									<SimplePredicate field="double(0)" operator="lessOrEqual" value="1344151.0"/>
									<Node score="15.304362666666668">
										<SimplePredicate field="double(2)" operator="lessOrEqual" value="79353.5"/>
									</Node>
								</Node>
								<Node score="16.225177600000002">
									<SimplePredicate field="double(2)" operator="lessOrEqual" value="87019.5"/>
								</Node>
							</Node>
							<Node score="17.304575999999997">
								<SimplePredicate field="double(2)" operator="lessOrEqual" value="92596.5"/>
								<Node score="18.9322245">
									<SimplePredicate field="double(2)" operator="lessOrEqual" value="91764.5"/>
								</Node>
							</Node>
							<Node score="19.562751999999996">
								<SimplePredicate field="double(0)" operator="lessOrEqual" value="1506204.0"/>
							</Node>
						</Node>
						<Node score="22.317202142857145">
							<SimplePredicate field="double(0)" operator="lessOrEqual" value="1744009.5"/>
							<Node score="19.220480000000002">
								<SimplePredicate field="double(0)" operator="lessOrEqual" value="1608252.5"/>
								<Node score="20.129024">
									<SimplePredicate field="double(0)" operator="lessOrEqual" value="1590179.5"/>
									<Node score="21.0147835">
										<SimplePredicate field="double(2)" operator="lessOrEqual" value="98725.0"/>
									</Node>
								</Node>
								<Node score="19.1191035">
									<SimplePredicate field="double(0)" operator="lessOrEqual" value="1599168.5"/>
								</Node>
							</Node>
							<Node score="20.8836135">
								<SimplePredicate field="double(0)" operator="lessOrEqual" value="1686381.5"/>
								<Node score="22.3610875">
									<SimplePredicate field="double(2)" operator="lessOrEqual" value="100871.0"/>
								</Node>
							</Node>
							<Node score="21.69753627777778">
								<SimplePredicate field="double(0)" operator="lessOrEqual" value="1704303.5"/>
							</Node>
						</Node>
						<Node score="50.34957">
							<SimplePredicate field="double(0)" operator="lessOrEqual" value="1753843.0"/>
						</Node>
						<Node score="23.060684900000002">
							<SimplePredicate field="double(2)" operator="lessOrEqual" value="110281.0"/>
							<Node score="22.619136499999996">
								<SimplePredicate field="double(2)" operator="lessOrEqual" value="109885.5"/>
							</Node>
						</Node>
						<Node score="21.680128">
							<SimplePredicate field="double(2)" operator="lessOrEqual" value="110913.0"/>
						</Node>
					</Node>
				</TreeModel>
			</Segment>
			<Segment id="19">
				<True/>
				<TreeModel functionName="regression" missingValueStrategy="nullPrediction" noTrueChildStrategy="returnLastPrediction">
					<MiningSchema>
						<MiningField name="double(0)"/>
						<MiningField name="double(2)"/>
					</MiningSchema>
					<Node score="22.91826904444445">
						<True/>
						<Node score="16.09596342857143">
							<SimplePredicate field="double(2)" operator="lessOrEqual" value="84165.0"/>
							<Node score="14.88940209090909">
								<SimplePredicate field="double(2)" operator="lessOrEqual" value="78429.5"/>
								<Node score="12.533504">
									<SimplePredicate field="double(2)" operator="lessOrEqual" value="66988.5"/>
									<Node score="12.537344000000001">
										<SimplePredicate field="double(0)" operator="lessOrEqual" value="1037557.5"/>
										<Node score="12.304383999999999">
											<SimplePredicate field="double(0)" operator="lessOrEqual" value="1028232.5"/>
										</Node>
									</Node>
									<Node score="13.724672">
										<SimplePredicate field="double(2)" operator="lessOrEqual" value="65193.5"/>
									</Node>
								</Node>
								<Node score="20.428801">
									<SimplePredicate field="double(0)" operator="lessOrEqual" value="1076044.0"/>
								</Node>
								<Node score="13.796810105263157">
									<SimplePredicate field="double(2)" operator="lessOrEqual" value="71151.0"/>
								</Node>
							</Node>
							<Node score="15.653603555555556">
								<SimplePredicate field="double(2)" operator="lessOrEqual" value="82071.0"/>
								<Node score="17.5134715">
									<SimplePredicate field="double(2)" operator="lessOrEqual" value="79798.5"/>
								</Node>
								<Node score="16.180224">
									<SimplePredicate field="double(2)" operator="lessOrEqual" value="80465.0"/>
								</Node>
							</Node>
							<Node score="22.848000499999998">
								<SimplePredicate field="double(0)" operator="lessOrEqual" value="1315036.5"/>
							</Node>
							<Node score="15.233536">
								<SimplePredicate field="double(0)" operator="lessOrEqual" value="1316475.0"/>
							</Node>
						</Node>
						<Node score="44.6305295">
							<SimplePredicate field="double(0)" operator="lessOrEqual" value="1369181.0"/>
							<Node score="21.073408">
								<SimplePredicate field="double(2)" operator="lessOrEqual" value="84860.0"/>
							</Node>
						</Node>
						<Node score="19.0289915">
							<SimplePredicate field="double(0)" operator="lessOrEqual" value="1524675.5"/>
							<Node score="17.103360205882353">
								<SimplePredicate field="double(2)" operator="lessOrEqual" value="94777.0"/>
								<Node score="15.963135999999999">
									<SimplePredicate field="double(0)" operator="lessOrEqual" value="1373455.0"/>
								</Node>
							</Node>
							<Node score="18.3147515">
								<SimplePredicate field="double(2)" operator="lessOrEqual" value="95077.0"/>
							</Node>
						</Node>
						<Node score="28.045824">
							<SimplePredicate field="double(2)" operator="lessOrEqual" value="95820.0"/>
						</Node>
						<Node score="19.17088885714286">
							<SimplePredicate field="double(0)" operator="lessOrEqual" value="1595840.5"/>
						</Node>
					</Node>
				</TreeModel>
			</Segment>
			<Segment id="20">
				<True/>
				<TreeModel functionName="regression" missingValueStrategy="nullPrediction" noTrueChildStrategy="returnLastPrediction">
					<MiningSchema>
						<MiningField name="double(0)"/>
						<MiningField name="double(2)"/>
					</MiningSchema>
					<Node score="54.5095665">
						<True/>
						<Node score="23.24224">
							<SimplePredicate field="double(2)" operator="lessOrEqual" value="111717.5"/>
							<Node score="17.492157666666667">
								<SimplePredicate field="double(0)" operator="lessOrEqual" value="1524675.5"/>
								<Node score="15.554861117647059">
									<SimplePredicate field="double(2)" operator="lessOrEqual" value="82071.0"/>
									<Node score="13.870148333333333">
										<SimplePredicate field="double(2)" operator="lessOrEqual" value="71151.0"/>
										<Node score="12.297216">
											<SimplePredicate field="double(2)" operator="lessOrEqual" value="67099.0"/>
										</Node>
									</Node>
									<Node score="14.481973815789475">
										<SimplePredicate field="double(0)" operator="lessOrEqual" value="1223957.0"/>
									</Node>
								</Node>
								<Node score="22.848000499999998">
									<SimplePredicate field="double(2)" operator="lessOrEqual" value="82190.0"/>
								</Node>
								<Node score="15.001216">
									<SimplePredicate field="double(2)" operator="lessOrEqual" value="84010.0"/>
								</Node>
							</Node>
							<Node score="23.198598023809524">
								<SimplePredicate field="double(2)" operator="lessOrEqual" value="109001.0"/>
								<Node score="28.045824">
									<SimplePredicate field="double(0)" operator="lessOrEqual" value="1529242.5"/>
								</Node>
								<Node score="18.6986492">
									<SimplePredicate field="double(2)" operator="lessOrEqual" value="98281.0"/>
								</Node>
							</Node>
							<Node score="50.34957">
								<SimplePredicate field="double(2)" operator="lessOrEqual" value="109615.5"/>
							</Node>
							<Node score="22.723511071428568">
								<SimplePredicate field="double(2)" operator="lessOrEqual" value="110716.5"/>
							</Node>
						</Node>
					</Node>
				</TreeModel>
			</Segment>
			<Segment id="21">
				<True/>
				<TreeModel functionName="regression" missingValueStrategy="nullPrediction" noTrueChildStrategy="returnLastPrediction">
					<MiningSchema>
						<MiningField name="double(0)"/>
						<MiningField name="double(2)"/>
					</MiningSchema>
					<Node score="54.5095665">
						<True/>
						<Node score="18.668916499999998">
							<SimplePredicate field="double(0)" operator="lessOrEqual" value="1521873.5"/>
							<Node score="14.026286545454543">
								<SimplePredicate field="double(0)" operator="lessOrEqual" value="1263069.5"/>
								<Node score="12.870272">
									<SimplePredicate field="double(0)" operator="lessOrEqual" value="1103029.0"/>
									<Node score="12.374528">
										<SimplePredicate field="double(0)" operator="lessOrEqual" value="1077284.5"/>
										<Node score="13.014527999999999">
											<SimplePredicate field="double(0)" operator="lessOrEqual" value="1056297.0"/>
										</Node>
									</Node>
									<Node score="13.600256">
										<SimplePredicate field="double(0)" operator="lessOrEqual" value="1080971.0"/>
									</Node>
								</Node>
								<Node score="14.554781461538457">
									<SimplePredicate field="double(2)" operator="lessOrEqual" value="74965.0"/>
									<Node score="13.957568">
										<SimplePredicate field="double(2)" operator="lessOrEqual" value="71084.0"/>
									</Node>
								</Node>
								<Node score="12.901888">
									<SimplePredicate field="double(2)" operator="lessOrEqual" value="75557.0"/>
								</Node>
							</Node>
							<Node score="16.439808">
								<SimplePredicate field="double(0)" operator="lessOrEqual" value="1346629.5"/>
								<Node score="20.896085333333332">
									<SimplePredicate field="double(0)" operator="lessOrEqual" value="1318208.5"/>
									<Node score="16.678195199999998">
										<SimplePredicate field="double(2)" operator="lessOrEqual" value="81868.5"/>
									</Node>
								</Node>
								<Node score="14.854143999999996">
									<SimplePredicate field="double(2)" operator="lessOrEqual" value="83255.5"/>
								</Node>
							</Node>
							<Node score="44.6305295">
								<SimplePredicate field="double(0)" operator="lessOrEqual" value="1369181.0"/>
								<Node score="17.963008">
									<SimplePredicate field="double(2)" operator="lessOrEqual" value="85411.5"/>
								</Node>
							</Node>
							<Node score="16.405077416666668">
								<SimplePredicate field="double(2)" operator="lessOrEqual" value="89886.0"/>
							</Node>
						</Node>
						<Node score="25.88342066666667">
							<SimplePredicate field="double(0)" operator="lessOrEqual" value="1787473.5"/>
							<Node score="21.46596856">
								<SimplePredicate field="double(2)" operator="lessOrEqual" value="105342.0"/>
								<Node score="28.045824">
									<SimplePredicate field="double(0)" operator="lessOrEqual" value="1545970.0"/>
								</Node>
								<Node score="17.861632">
									<SimplePredicate field="double(2)" operator="lessOrEqual" value="97938.0"/>
								</Node>
							</Node>
							<Node score="55.535105">
								<SimplePredicate field="double(2)" operator="lessOrEqual" value="105505.5"/>
							</Node>
							<Node score="22.06688476923077">
								<SimplePredicate field="double(0)" operator="lessOrEqual" value="1744540.0"/>
							</Node>
						</Node>
					</Node>
				</TreeModel>
			</Segment>
			<Segment id="22">
				<True/>
				<TreeModel functionName="regression" missingValueStrategy="nullPrediction" noTrueChildStrategy="returnLastPrediction">
					<MiningSchema>
						<MiningField name="double(0)"/>
						<MiningField name="double(2)"/>
					</MiningSchema>
					<Node score="54.5095665">
						<True/>
						<Node score="17.788610310344826">
							<SimplePredicate field="double(0)" operator="lessOrEqual" value="1576985.5"/>
							<Node score="15.023744">
								<SimplePredicate field="double(2)" operator="lessOrEqual" value="79197.0"/>
								<Node score="12.943957333333335">
									<SimplePredicate field="double(0)" operator="lessOrEqual" value="1138414.5"/>
									<Node score="12.841073777777778">
										<SimplePredicate field="double(0)" operator="lessOrEqual" value="1075968.0"/>
										<Node score="12.304383999999999">
											<SimplePredicate field="double(0)" operator="lessOrEqual" value="1031817.0"/>
										</Node>
									</Node>
									<Node score="13.663744000000001">
										<SimplePredicate field="double(2)" operator="lessOrEqual" value="70202.0"/>
									</Node>
								</Node>
								<Node score="17.1412475">
									<SimplePredicate field="double(0)" operator="lessOrEqual" value="1146534.5"/>
								</Node>
								<Node score="14.301695966666665">
									<SimplePredicate field="double(2)" operator="lessOrEqual" value="76573.5"/>
								</Node>
							</Node>
							<Node score="16.439808">
								<SimplePredicate field="double(2)" operator="lessOrEqual" value="84777.0"/>
								<Node score="18.9828094">
									<SimplePredicate field="double(0)" operator="lessOrEqual" value="1318208.5"/>
									<Node score="16.26946953846154">
										<SimplePredicate field="double(0)" operator="lessOrEqual" value="1313129.5"/>
									</Node>
								</Node>
								<Node score="15.049471999999998">
									<SimplePredicate field="double(2)" operator="lessOrEqual" value="84010.0"/>
								</Node>
							</Node>
							<Node score="44.6305295">
								<SimplePredicate field="double(2)" operator="lessOrEqual" value="85574.0"/>
							</Node>
							<Node score="16.34470375">
								<SimplePredicate field="double(2)" operator="lessOrEqual" value="87351.0"/>
							</Node>
						</Node>
						<Node score="22.7448834">
							<SimplePredicate field="double(0)" operator="lessOrEqual" value="1778031.5"/>
							<Node score="23.2564736">
								<SimplePredicate field="double(0)" operator="lessOrEqual" value="1684823.5"/>
								<Node score="30.601214999999996">
									<SimplePredicate field="double(2)" operator="lessOrEqual" value="100078.0"/>
									<Node score="21.401600000000002">
										<SimplePredicate field="double(2)" operator="lessOrEqual" value="99516.0"/>
									</Node>
								</Node>
								<Node score="20.974122583333333">
									<SimplePredicate field="double(2)" operator="lessOrEqual" value="102538.5"/>
								</Node>
							</Node>
							<Node score="55.535105">
								<SimplePredicate field="double(0)" operator="lessOrEqual" value="1688083.0"/>
							</Node>
							<Node score="21.52516258333333">
								<SimplePredicate field="double(0)" operator="lessOrEqual" value="1736168.5"/>
							</Node>
						</Node>
					</Node>
				</TreeModel>
			</Segment>
			<Segment id="23">
				<True/>
				<TreeModel functionName="regression" missingValueStrategy="nullPrediction" noTrueChildStrategy="returnLastPrediction">
					<MiningSchema>
						<MiningField name="double(0)"/>
						<MiningField name="double(2)"/>
					</MiningSchema>
					<Node score="54.5095665">
						<True/>
						<Node score="27.24804308333333">
							<SimplePredicate field="double(0)" operator="lessOrEqual" value="1778031.5"/>
							<Node score="15.794944000000001">
								<SimplePredicate field="double(0)" operator="lessOrEqual" value="1366581.0"/>
								<Node score="13.60773780645161">
									<SimplePredicate field="double(0)" operator="lessOrEqual" value="1225169.0"/>
									<Node score="11.983274666666667">
										<SimplePredicate field="double(2)" operator="lessOrEqual" value="67100.5"/>
										<Node score="12.620946285714284">
											<SimplePredicate field="double(2)" operator="lessOrEqual" value="65193.5"/>
										</Node>
									</Node>
									<Node score="20.428801">
										<SimplePredicate field="double(2)" operator="lessOrEqual" value="67309.5"/>
									</Node>
								</Node>
								<Node score="15.395188363636363">
									<SimplePredicate field="double(2)" operator="lessOrEqual" value="84165.0"/>
									<Node score="16.401469300000002">
										<SimplePredicate field="double(0)" operator="lessOrEqual" value="1318208.5"/>
									</Node>
								</Node>
								<Node score="21.073408">
									<SimplePredicate field="double(0)" operator="lessOrEqual" value="1352389.5"/>
								</Node>
							</Node>
							<Node score="44.6305295">
								<SimplePredicate field="double(2)" operator="lessOrEqual" value="85574.0"/>
							</Node>
							<Node score="18.948168785714284">
								<SimplePredicate field="double(0)" operator="lessOrEqual" value="1584088.5"/>
								<Node score="17.413171175000002">
									<SimplePredicate field="double(0)" operator="lessOrEqual" value="1516426.0"/>
								</Node>
							</Node>
							<Node score="21.905756280000002">
								<SimplePredicate field="double(2)" operator="lessOrEqual" value="108826.0"/>
							</Node>
						</Node>
					</Node>
				</TreeModel>
			</Segment>
			<Segment id="24">
				<True/>
				<TreeModel functionName="regression" missingValueStrategy="nullPrediction" noTrueChildStrategy="returnLastPrediction">
					<MiningSchema>
						<MiningField name="double(0)"/>
						<MiningField name="double(2)"/>
					</MiningSchema>
					<Node score="54.5095665">
						<True/>
						<Node score="23.24224">
							<SimplePredicate field="double(2)" operator="lessOrEqual" value="111717.5"/>
							<Node score="17.34669217741935">
								<SimplePredicate field="double(2)" operator="lessOrEqual" value="95117.5"/>
								<Node score="13.979343178571433">
									<SimplePredicate field="double(0)" operator="lessOrEqual" value="1267140.0"/>
									<Node score="12.618496">
										<SimplePredicate field="double(2)" operator="lessOrEqual" value="67100.5"/>
										<Node score="11.696639999999999">
											<SimplePredicate field="double(0)" operator="lessOrEqual" value="1038377.0"/>
										</Node>
									</Node>
									<Node score="20.428801">
										<SimplePredicate field="double(2)" operator="lessOrEqual" value="67253.5"/>
									</Node>
								</Node>
								<Node score="15.589406029411764">
									<SimplePredicate field="double(2)" operator="lessOrEqual" value="84006.5"/>
									<Node score="16.20309333333333">
										<SimplePredicate field="double(0)" operator="lessOrEqual" value="1287246.5"/>
									</Node>
								</Node>
								<Node score="21.073408">
									<SimplePredicate field="double(0)" operator="lessOrEqual" value="1352389.5"/>
								</Node>
							</Node>
							<Node score="22.280254000000003">
								<SimplePredicate field="double(2)" operator="lessOrEqual" value="109034.0"/>
								<Node score="28.045824">
									<SimplePredicate field="double(2)" operator="lessOrEqual" value="95578.0"/>
								</Node>
								<Node score="18.43007975">
									<SimplePredicate field="double(0)" operator="lessOrEqual" value="1595840.5"/>
								</Node>
							</Node>
							<Node score="50.34957">
								<SimplePredicate field="double(0)" operator="lessOrEqual" value="1755629.5"/>
							</Node>
							<Node score="22.387199999999996">
								<SimplePredicate field="double(2)" operator="lessOrEqual" value="110913.0"/>
							</Node>
						</Node>
					</Node>
				</TreeModel>
			</Segment>
			<Segment id="25">
				<True/>
				<TreeModel functionName="regression" missingValueStrategy="nullPrediction" noTrueChildStrategy="returnLastPrediction">
					<MiningSchema>
						<MiningField name="double(0)"/>
						<MiningField name="double(2)"/>
					</MiningSchema>
					<Node score="54.5095665">
						<True/>
						<Node score="15.70048">
							<SimplePredicate field="double(0)" operator="lessOrEqual" value="1366581.0"/>
							<Node score="13.972882249999998">
								<SimplePredicate field="double(0)" operator="lessOrEqual" value="1210796.5"/>
								<Node score="12.702207999999999">
									<SimplePredicate field="double(0)" operator="lessOrEqual" value="1099914.5"/>
									<Node score="12.26624">
										<SimplePredicate field="double(0)" operator="lessOrEqual" value="1062721.5"/>
										<Node score="11.213823999999999">
											<SimplePredicate field="double(0)" operator="lessOrEqual" value="1038377.0"/>
										</Node>
									</Node>
									<Node score="13.227315199999998">
										<SimplePredicate field="double(0)" operator="lessOrEqual" value="1080971.0"/>
									</Node>
								</Node>
								<Node score="15.116800000000001">
									<SimplePredicate field="double(2)" operator="lessOrEqual" value="68870.0"/>
								</Node>
								<Node score="13.513955555555555">
									<SimplePredicate field="double(0)" operator="lessOrEqual" value="1138414.5"/>
								</Node>
							</Node>
							<Node score="16.053848956521737">
								<SimplePredicate field="double(2)" operator="lessOrEqual" value="84165.0"/>
								<Node score="14.978048000000001">
									<SimplePredicate field="double(2)" operator="lessOrEqual" value="79353.5"/>
									<Node score="15.382784">
										<SimplePredicate field="double(0)" operator="lessOrEqual" value="1239929.0"/>
									</Node>
								</Node>
								<Node score="18.137088166666665">
									<SimplePredicate field="double(2)" operator="lessOrEqual" value="80453.5"/>
								</Node>
							</Node>
							<Node score="21.073408">
								<SimplePredicate field="double(2)" operator="lessOrEqual" value="84573.0"/>
							</Node>
							<Node score="16.297984">
								<SimplePredicate field="double(2)" operator="lessOrEqual" value="85124.5"/>
							</Node>
						</Node>
						<Node score="24.00228089772727">
							<SimplePredicate field="double(0)" operator="lessOrEqual" value="1787473.5"/>
							<Node score="44.6305295">
								<SimplePredicate field="double(0)" operator="lessOrEqual" value="1369219.5"/>
							</Node>
							<Node score="20.937386466666666">
								<SimplePredicate field="double(0)" operator="lessOrEqual" value="1595840.5"/>
								<Node score="17.55696494736842">
									<SimplePredicate field="double(0)" operator="lessOrEqual" value="1524675.5"/>
								</Node>
							</Node>
							<Node score="30.601214999999996">
								<SimplePredicate field="double(2)" operator="lessOrEqual" value="100078.0"/>
							</Node>
						</Node>
					</Node>
				</TreeModel>
			</Segment>
			<Segment id="26">
				<True/>
				<TreeModel functionName="regression" missingValueStrategy="nullPrediction" noTrueChildStrategy="returnLastPrediction">
					<MiningSchema>
						<MiningField name="double(0)"/>
						<MiningField name="double(2)"/>
					</MiningSchema>
					<Node score="54.5095665">
						<True/>
						<Node score="18.424021">
							<SimplePredicate field="double(0)" operator="lessOrEqual" value="1584088.5"/>
							<Node score="15.849855875000001">
								<SimplePredicate field="double(2)" operator="lessOrEqual" value="84777.0"/>
								<Node score="14.167196430555554">
									<SimplePredicate field="double(2)" operator="lessOrEqual" value="77116.5"/>
									<Node score="11.961002666666667">
										<SimplePredicate field="double(2)" operator="lessOrEqual" value="67100.5"/>
										<Node score="12.800128">
											<SimplePredicate field="double(0)" operator="lessOrEqual" value="1049339.0"/>
										</Node>
									</Node>
									<Node score="20.428801">
										<SimplePredicate field="double(2)" operator="lessOrEqual" value="67309.5"/>
									</Node>
								</Node>
								<Node score="22.848000499999998">
									<SimplePredicate field="double(2)" operator="lessOrEqual" value="82190.0"/>
									<Node score="15.98512965217391">
										<SimplePredicate field="double(2)" operator="lessOrEqual" value="82071.0"/>
									</Node>
								</Node>
								<Node score="15.141376">
									<SimplePredicate field="double(0)" operator="lessOrEqual" value="1324064.0"/>
								</Node>
							</Node>
							<Node score="44.6305295">
								<SimplePredicate field="double(0)" operator="lessOrEqual" value="1369181.0"/>
							</Node>
							<Node score="17.3035011">
								<SimplePredicate field="double(0)" operator="lessOrEqual" value="1449418.5"/>
								<Node score="16.02047975">
									<SimplePredicate field="double(2)" operator="lessOrEqual" value="87817.5"/>
								</Node>
							</Node>
							<Node score="17.91736714285714">
								<SimplePredicate field="double(0)" operator="lessOrEqual" value="1495525.5"/>
							</Node>
						</Node>
						<Node score="23.24224">
							<SimplePredicate field="double(2)" operator="lessOrEqual" value="111717.5"/>
							<Node score="22.57543685">
								<SimplePredicate field="double(0)" operator="lessOrEqual" value="1739805.0"/>
								<Node score="30.601214999999996">
									<SimplePredicate field="double(2)" operator="lessOrEqual" value="100078.0"/>
									<Node score="21.401600000000002">
										<SimplePredicate field="double(0)" operator="lessOrEqual" value="1592247.0"/>
									</Node>
								</Node>
								<Node score="20.7205118125">
									<SimplePredicate field="double(2)" operator="lessOrEqual" value="102013.5"/>
								</Node>
							</Node>
							<Node score="50.34957">
								<SimplePredicate field="double(0)" operator="lessOrEqual" value="1754117.0"/>
							</Node>
							<Node score="22.703957583333334">
								<SimplePredicate field="double(0)" operator="lessOrEqual" value="1773932.0"/>
							</Node>
						</Node>
					</Node>
				</TreeModel>
			</Segment>
			<Segment id="27">
				<True/>
				<TreeModel functionName="regression" missingValueStrategy="nullPrediction" noTrueChildStrategy="returnLastPrediction">
					<MiningSchema>
						<MiningField name="double(0)"/>
						<MiningField name="double(2)"/>
					</MiningSchema>
					<Node score="54.5095665">
						<True/>
						<Node score="18.001408062499998">
							<SimplePredicate field="double(2)" operator="lessOrEqual" value="95117.5"/>
							<Node score="14.41935358">
								<SimplePredicate field="double(2)" operator="lessOrEqual" value="79353.5"/>
								<Node score="12.182272000000001">
									<SimplePredicate field="double(2)" operator="lessOrEqual" value="67100.5"/>
									<Node score="11.213823999999999">
										<SimplePredicate field="double(0)" operator="lessOrEqual" value="1038377.0"/>
										<Node score="12.420864">
											<SimplePredicate field="double(0)" operator="lessOrEqual" value="1034792.5"/>
										</Node>
									</Node>
									<Node score="13.724672">
										<SimplePredicate field="double(2)" operator="lessOrEqual" value="65193.5"/>
									</Node>
								</Node>
								<Node score="20.428801">
									<SimplePredicate field="double(0)" operator="lessOrEqual" value="1076044.0"/>
								</Node>
								<Node score="12.976128000000001">
									<SimplePredicate field="double(2)" operator="lessOrEqual" value="68745.0"/>
								</Node>
							</Node>
							<Node score="15.796053083333334">
								<SimplePredicate field="double(2)" operator="lessOrEqual" value="84093.0"/>
								<Node score="22.848000499999998">
									<SimplePredicate field="double(0)" operator="lessOrEqual" value="1315036.5"/>
									<Node score="16.29580791666667">
										<SimplePredicate field="double(0)" operator="lessOrEqual" value="1313129.5"/>
									</Node>
								</Node>
								<Node score="15.405787285714284">
									<SimplePredicate field="double(0)" operator="lessOrEqual" value="1324064.0"/>
								</Node>
							</Node>
							<Node score="44.6305295">
								<SimplePredicate field="double(0)" operator="lessOrEqual" value="1369181.0"/>
								<Node score="21.073408">
									<SimplePredicate field="double(0)" operator="lessOrEqual" value="1357754.5"/>
								</Node>
							</Node>
							<Node score="16.2101119375">
								<SimplePredicate field="double(2)" operator="lessOrEqual" value="87853.5"/>
							</Node>
						</Node>
						<Node score="22.608384100000002">
							<SimplePredicate field="double(2)" operator="lessOrEqual" value="111127.5"/>
							<Node score="21.65772344827586">
								<SimplePredicate field="double(2)" operator="lessOrEqual" value="105342.0"/>
								<Node score="28.045824">
									<SimplePredicate field="double(2)" operator="lessOrEqual" value="95578.0"/>
								</Node>
								<Node score="17.80172775">
									<SimplePredicate field="double(0)" operator="lessOrEqual" value="1567002.0"/>
								</Node>
							</Node>
							<Node score="55.535105">
								<SimplePredicate field="double(2)" operator="lessOrEqual" value="105505.5"/>
							</Node>
							<Node score="21.760819299999998">
								<SimplePredicate field="double(0)" operator="lessOrEqual" value="1718738.0"/>
							</Node>
						</Node>
					</Node>
				</TreeModel>
			</Segment>
			<Segment id="28">
				<True/>
				<TreeModel functionName="regression" missingValueStrategy="nullPrediction" noTrueChildStrategy="returnLastPrediction">
					<MiningSchema>
						<MiningField name="double(0)"/>
						<MiningField name="double(2)"/>
					</MiningSchema>
					<Node score="23.24224">
						<True/>
						<Node score="17.53911859090909">
							<SimplePredicate field="double(2)" operator="lessOrEqual" value="90740.0"/>
							<Node score="14.31898578846154">
								<SimplePredicate field="double(0)" operator="lessOrEqual" value="1223957.0"/>
								<Node score="12.457984000000002">
									<SimplePredicate field="double(0)" operator="lessOrEqual" value="1060367.5"/>
									<Node score="12.537344000000001">
										<SimplePredicate field="double(0)" operator="lessOrEqual" value="1034792.5"/>
										<Node score="12.304383999999999">
											<SimplePredicate field="double(0)" operator="lessOrEqual" value="1028232.5"/>
										</Node>
									</Node>
									<Node score="11.213823999999999">
										<SimplePredicate field="double(0)" operator="lessOrEqual" value="1038377.0"/>
									</Node>
								</Node>
								<Node score="20.428801">
									<SimplePredicate field="double(2)" operator="lessOrEqual" value="67309.5"/>
								</Node>
								<Node score="13.228347076923075">
									<SimplePredicate field="double(0)" operator="lessOrEqual" value="1138414.5"/>
								</Node>
							</Node>
							<Node score="15.690656">
								<SimplePredicate field="double(0)" operator="lessOrEqual" value="1345482.5"/>
								<Node score="17.084415999999997">
									<SimplePredicate field="double(2)" operator="lessOrEqual" value="80465.0"/>
									<Node score="16.167862785714284">
										<SimplePredicate field="double(0)" operator="lessOrEqual" value="1285340.0"/>
									</Node>
								</Node>
								<Node score="14.257663999999998">
									<SimplePredicate field="double(2)" operator="lessOrEqual" value="80602.5"/>
								</Node>
							</Node>
							<Node score="21.073408">
								<SimplePredicate field="double(0)" operator="lessOrEqual" value="1353160.5"/>
							</Node>
							<Node score="16.07350038888889">
								<SimplePredicate field="double(0)" operator="lessOrEqual" value="1392301.0"/>
							</Node>
						</Node>
						<Node score="21.757765909090914">
							<SimplePredicate field="double(0)" operator="lessOrEqual" value="1685465.5"/>
							<Node score="19.0289915">
								<SimplePredicate field="double(0)" operator="lessOrEqual" value="1524675.5"/>
								<Node score="18.0771845">
									<SimplePredicate field="double(2)" operator="lessOrEqual" value="92517.5"/>
									<Node score="18.9322245">
										<SimplePredicate field="double(2)" operator="lessOrEqual" value="91685.5"/>
									</Node>
								</Node>
								<Node score="19.864064499999998">
									<SimplePredicate field="double(2)" operator="lessOrEqual" value="93968.5"/>
								</Node>
							</Node>
							<Node score="28.045824">
								<SimplePredicate field="double(0)" operator="lessOrEqual" value="1529242.5"/>
							</Node>
							<Node score="19.405823708333333">
								<SimplePredicate field="double(0)" operator="lessOrEqual" value="1619175.5"/>
							</Node>
						</Node>
						<Node score="55.535105">
							<SimplePredicate field="double(0)" operator="lessOrEqual" value="1691441.0"/>
						</Node>
						<Node score="20.417025000000002">
							<SimplePredicate field="double(2)" operator="lessOrEqual" value="106306.0"/>
						</Node>
						<Node score="22.35439246153846">
							<SimplePredicate field="double(2)" operator="lessOrEqual" value="110913.0"/>
						</Node>
					</Node>
				</TreeModel>
			</Segment>
			<Segment id="29">
				<True/>
				<TreeModel functionName="regression" missingValueStrategy="nullPrediction" noTrueChildStrategy="returnLastPrediction">
					<MiningSchema>
						<MiningField name="double(0)"/>
						<MiningField name="double(2)"/>
					</MiningSchema>
					<Node score="23.24224">
						<True/>
						<Node score="16.0321095">
							<SimplePredicate field="double(0)" operator="lessOrEqual" value="1346629.5"/>
							<Node score="14.12465775">
								<SimplePredicate field="double(2)" operator="lessOrEqual" value="76497.5"/>
								<Node score="13.045845333333334">
									<SimplePredicate field="double(0)" operator="lessOrEqual" value="1099914.5"/>
									<Node score="12.692772571428574">
										<SimplePredicate field="double(2)" operator="lessOrEqual" value="67331.0"/>
										<Node score="12.096170666666666">
											<SimplePredicate field="double(2)" operator="lessOrEqual" value="64899.0"/>
										</Node>
									</Node>
									<Node score="13.659135999999998">
										<SimplePredicate field="double(2)" operator="lessOrEqual" value="67561.0"/>
									</Node>
								</Node>
								<Node score="15.116800000000003">
									<SimplePredicate field="double(0)" operator="lessOrEqual" value="1101480.0"/>
								</Node>
								<Node score="13.591133090909091">
									<SimplePredicate field="double(2)" operator="lessOrEqual" value="71358.5"/>
								</Node>
							</Node>
							<Node score="17.084415999999997">
								<SimplePredicate field="double(0)" operator="lessOrEqual" value="1287431.0"/>
								<Node score="16.204629166666667">
									<SimplePredicate field="double(2)" operator="lessOrEqual" value="80322.5"/>
									<Node score="15.796736">
										<SimplePredicate field="double(0)" operator="lessOrEqual" value="1248062.5"/>
									</Node>
								</Node>
								<Node score="18.448896499999996">
									<SimplePredicate field="double(2)" operator="lessOrEqual" value="80424.5"/>
								</Node>
							</Node>
							<Node score="14.257663999999998">
								<SimplePredicate field="double(0)" operator="lessOrEqual" value="1295723.0"/>
							</Node>
							<Node score="17.3163521">
								<SimplePredicate field="double(2)" operator="lessOrEqual" value="82190.0"/>
							</Node>
						</Node>
						<Node score="19.109343812500004">
							<SimplePredicate field="double(0)" operator="lessOrEqual" value="1631700.5"/>
							<Node score="44.6305295">
								<SimplePredicate field="double(2)" operator="lessOrEqual" value="85574.0"/>
								<Node score="15.999232">
									<SimplePredicate field="double(0)" operator="lessOrEqual" value="1366581.0"/>
									<Node score="21.073408">
										<SimplePredicate field="double(2)" operator="lessOrEqual" value="84573.0"/>
									</Node>
								</Node>
							</Node>
							<Node score="18.045715692307688">
								<SimplePredicate field="double(2)" operator="lessOrEqual" value="95292.5"/>
								<Node score="16.697702600000003">
									<SimplePredicate field="double(0)" operator="lessOrEqual" value="1438173.0"/>
								</Node>
							</Node>
							<Node score="28.045824">
								<SimplePredicate field="double(2)" operator="lessOrEqual" value="95578.0"/>
							</Node>
						</Node>
						<Node score="21.703793805555556">
							<SimplePredicate field="double(2)" operator="lessOrEqual" value="109001.0"/>
							<Node score="28.62848">
								<SimplePredicate field="double(0)" operator="lessOrEqual" value="1641987.0"/>
								<Node score="22.532096">
									<SimplePredicate field="double(2)" operator="lessOrEqual" value="102592.5"/>
								</Node>
							</Node>
							<Node score="20.65459183333333">
								<SimplePredicate field="double(0)" operator="lessOrEqual" value="1666965.5"/>
							</Node>
						</Node>
						<Node score="50.34957">
							<SimplePredicate field="double(2)" operator="lessOrEqual" value="109615.5"/>
						</Node>
						<Node score="22.626304166666667">
							<SimplePredicate field="double(0)" operator="lessOrEqual" value="1774605.0"/>
						</Node>
					</Node>
				</TreeModel>
			</Segment>
			<Segment id="30">
				<True/>
				<TreeModel functionName="regression" missingValueStrategy="nullPrediction" noTrueChildStrategy="returnLastPrediction">
					<MiningSchema>
						<MiningField name="double(0)"/>
						<MiningField name="double(2)"/>
					</MiningSchema>
					<Node score="54.5095665">
						<True/>
						<Node score="22.00508631578947">
							<SimplePredicate field="double(2)" operator="lessOrEqual" value="108826.0"/>
							<Node score="17.634867216666667">
								<SimplePredicate field="double(2)" operator="lessOrEqual" value="97938.0"/>
								<Node score="13.97698017105263">
									<SimplePredicate field="double(0)" operator="lessOrEqual" value="1267140.0"/>
									<Node score="12.803993600000002">
										<SimplePredicate field="double(0)" operator="lessOrEqual" value="1071805.0"/>
										<Node score="12.096170666666666">
											<SimplePredicate field="double(0)" operator="lessOrEqual" value="1038377.0"/>
										</Node>
									</Node>
									<Node score="20.428801">
										<SimplePredicate field="double(2)" operator="lessOrEqual" value="67253.5"/>
									</Node>
								</Node>
								<Node score="15.974134481481485">
									<SimplePredicate field="double(0)" operator="lessOrEqual" value="1366581.0"/>
									<Node score="17.408145785714286">
										<SimplePredicate field="double(2)" operator="lessOrEqual" value="79798.5"/>
									</Node>
								</Node>
								<Node score="44.6305295">
									<SimplePredicate field="double(0)" operator="lessOrEqual" value="1369181.0"/>
								</Node>
							</Node>
							<Node score="30.601214999999996">
								<SimplePredicate field="double(2)" operator="lessOrEqual" value="100078.0"/>
								<Node score="21.401600000000002">
									<SimplePredicate field="double(2)" operator="lessOrEqual" value="99516.0"/>
									<Node score="20.334079625">
										<SimplePredicate field="double(0)" operator="lessOrEqual" value="1584088.5"/>
									</Node>
								</Node>
							</Node>
							<Node score="20.933631749999996">
								<SimplePredicate field="double(0)" operator="lessOrEqual" value="1628086.0"/>
								<Node score="19.220480000000002">
									<SimplePredicate field="double(0)" operator="lessOrEqual" value="1608252.5"/>
								</Node>
							</Node>
							<Node score="25.357440124999997">
								<SimplePredicate field="double(2)" operator="lessOrEqual" value="102624.5"/>
							</Node>
						</Node>
						<Node score="21.680128">
							<SimplePredicate field="double(0)" operator="lessOrEqual" value="1778031.5"/>
							<Node score="50.34957">
								<SimplePredicate field="double(0)" operator="lessOrEqual" value="1755629.5"/>
							</Node>
							<Node score="22.832127500000002">
								<SimplePredicate field="double(0)" operator="lessOrEqual" value="1764490.0"/>
								<Node score="22.649344499999998">
									<SimplePredicate field="double(0)" operator="lessOrEqual" value="1761347.5"/>
								</Node>
							</Node>
						</Node>
					</Node>
				</TreeModel>
			</Segment>
			<Segment id="31">
				<True/>
				<TreeModel functionName="regression" missingValueStrategy="nullPrediction" noTrueChildStrategy="returnLastPrediction">
					<MiningSchema>
						<MiningField name="double(0)"/>
						<MiningField name="double(2)"/>
					</MiningSchema>
					<Node score="54.5095665">
						<True/>
						<Node score="23.22764825">
							<SimplePredicate field="double(0)" operator="lessOrEqual" value="1787473.5"/>
							<Node score="18.004633675">
								<SimplePredicate field="double(2)" operator="lessOrEqual" value="95292.5"/>
								<Node score="15.284010645833336">
									<SimplePredicate field="double(0)" operator="lessOrEqual" value="1344151.0"/>
									<Node score="14.1286656">
										<SimplePredicate field="double(0)" operator="lessOrEqual" value="1223957.0"/>
										<Node score="12.182186666666666">
											<SimplePredicate field="double(2)" operator="lessOrEqual" value="67100.5"/>
										</Node>
									</Node>
									<Node score="16.140288">
										<SimplePredicate field="double(0)" operator="lessOrEqual" value="1230428.0"/>
									</Node>
								</Node>
								<Node score="44.6305295">
									<SimplePredicate field="double(2)" operator="lessOrEqual" value="85576.5"/>
									<Node score="17.199718400000002">
										<SimplePredicate field="double(0)" operator="lessOrEqual" value="1362954.0"/>
									</Node>
								</Node>
								<Node score="16.55091164285714">
									<SimplePredicate field="double(0)" operator="lessOrEqual" value="1406211.0"/>
								</Node>
							</Node>
							<Node score="22.544820632352938">
								<SimplePredicate field="double(0)" operator="lessOrEqual" value="1741214.0"/>
								<Node score="28.045824">
									<SimplePredicate field="double(2)" operator="lessOrEqual" value="95578.0"/>
								</Node>
								<Node score="17.821695833333333">
									<SimplePredicate field="double(2)" operator="lessOrEqual" value="98257.0"/>
								</Node>
							</Node>
							<Node score="50.34957">
								<SimplePredicate field="double(2)" operator="lessOrEqual" value="109632.5"/>
							</Node>
							<Node score="22.794240000000002">
								<SimplePredicate field="double(0)" operator="lessOrEqual" value="1758432.5"/>
							</Node>
						</Node>
					</Node>
				</TreeModel>
			</Segment>
			<Segment id="32">
				<True/>
				<TreeModel functionName="regression" missingValueStrategy="nullPrediction" noTrueChildStrategy="returnLastPrediction">
					<MiningSchema>
						<MiningField name="double(0)"/>
						<MiningField name="double(2)"/>
					</MiningSchema>
					<Node score="54.5095665">
						<True/>
						<Node score="17.893034666666665">
							<SimplePredicate field="double(2)" operator="lessOrEqual" value="95292.5"/>
							<Node score="14.257648454545452">
								<SimplePredicate field="double(2)" operator="lessOrEqual" value="78688.5"/>
								<Node score="12.509824000000002">
									<SimplePredicate field="double(2)" operator="lessOrEqual" value="67100.5"/>
									<Node score="12.304383999999999">
										<SimplePredicate field="double(0)" operator="lessOrEqual" value="1028232.5"/>
									</Node>
									<Node score="13.131008000000001">
										<SimplePredicate field="double(0)" operator="lessOrEqual" value="1043087.0"/>
									</Node>
								</Node>
								<Node score="20.428801">
									<SimplePredicate field="double(2)" operator="lessOrEqual" value="67253.5"/>
								</Node>
								<Node score="12.940416">
