<?xml version="1.0" encoding="UTF-8" standalone="yes"?>
<PMML xmlns="http://www.dmg.org/PMML-4_4" xmlns:data="http://jpmml.org/jpmml-model/InlineTable" version="4.4">
	<Header>
		<Application name="SkLearn2PMML package" version="0.90.0"/>
		<Timestamp>2023-05-02T17:41:13Z</Timestamp>
	</Header>
	<MiningBuildTask>
		<Extension name="repr">PMMLPipeline(steps=[('regressor', RandomForestRegressor(max_depth=5, n_estimators=64, random_state=42))])</Extension>
	</MiningBuildTask>
	<DataDictionary>
		<DataField name="Time" optype="continuous" dataType="double"/>
		<DataField name="0" optype="continuous" dataType="float"/>
		<DataField name="2" optype="continuous" dataType="float"/>
		<DataField name="3" optype="continuous" dataType="float"/>
	</DataDictionary>
	<MiningModel functionName="regression" algorithmName="sklearn.ensemble._forest.RandomForestRegressor">
		<MiningSchema>
			<MiningField name="Time" usageType="target"/>
			<MiningField name="2"/>
			<MiningField name="0"/>
			<MiningField name="3"/>
		</MiningSchema>
		<LocalTransformations>
			<DerivedField name="double(2)" optype="continuous" dataType="double">
				<FieldRef field="2"/>
			</DerivedField>
			<DerivedField name="double(0)" optype="continuous" dataType="double">
				<FieldRef field="0"/>
			</DerivedField>
			<DerivedField name="double(3)" optype="continuous" dataType="double">
				<FieldRef field="3"/>
			</DerivedField>
		</LocalTransformations>
		<Segmentation multipleModelMethod="average" missingPredictionTreatment="returnMissing">
			<Segment id="1">
				<True/>
				<TreeModel functionName="regression" missingValueStrategy="nullPrediction" noTrueChildStrategy="returnLastPrediction">
					<MiningSchema>
						<MiningField name="double(2)"/>
						<MiningField name="double(0)"/>
						<MiningField name="double(3)"/>
					</MiningSchema>
					<Node score="0.06368224329896904">
						<True/>
						<Node score="0.13312">
							<SimplePredicate field="double(2)" operator="lessOrEqual" value="1.5"/>
							<Node score="0.017268363636363637">
								<SimplePredicate field="double(2)" operator="lessOrEqual" value="0.5"/>
								<Node score="0.0139264">
									<SimplePredicate field="double(0)" operator="lessOrEqual" value="1666965.5"/>
									<Node score="0.0256">
										<SimplePredicate field="double(0)" operator="lessOrEqual" value="1103463.0"/>
										<Node score="0.016599578947368424">
											<SimplePredicate field="double(3)" operator="lessOrEqual" value="68870.0"/>
										</Node>
									</Node>
									<Node score="0.015643234042553186">
										<SimplePredicate field="double(0)" operator="lessOrEqual" value="1628014.0"/>
									</Node>
								</Node>
								<Node score="0.0256">
									<SimplePredicate field="double(3)" operator="lessOrEqual" value="105127.0"/>
									<Node score="0.017408">
										<SimplePredicate field="double(3)" operator="lessOrEqual" value="104767.5"/>
									</Node>
								</Node>
								<Node score="0.013994666666666667">
									<SimplePredicate field="double(3)" operator="lessOrEqual" value="106820.0"/>
								</Node>
							</Node>
							<Node score="0.182272">
								<SimplePredicate field="double(3)" operator="lessOrEqual" value="101075.0"/>
								<Node score="0.13892266666666667">
									<SimplePredicate field="double(3)" operator="lessOrEqual" value="94796.0"/>
									<Node score="0.15857371428571423">
										<SimplePredicate field="double(0)" operator="lessOrEqual" value="1495525.5"/>
									</Node>
								</Node>
								<Node score="0.17056914285714284">
									<SimplePredicate field="double(0)" operator="lessOrEqual" value="1582092.5"/>
								</Node>
							</Node>
							<Node score="0.12834133333333334">
								<SimplePredicate field="double(0)" operator="lessOrEqual" value="1755579.0"/>
								<Node score="0.1457257931034483">
									<SimplePredicate field="double(0)" operator="lessOrEqual" value="1744540.0"/>
								</Node>
							</Node>
							<Node score="0.178176">
								<SimplePredicate field="double(0)" operator="lessOrEqual" value="1773932.0"/>
							</Node>
						</Node>
						<Node score="0.08738133333333332">
							<SimplePredicate field="double(2)" operator="lessOrEqual" value="5.5"/>
							<Node score="0.010916102564102546">
								<SimplePredicate field="double(2)" operator="lessOrEqual" value="4.5"/>
								<Node score="0.00907153526970953">
									<SimplePredicate field="double(0)" operator="lessOrEqual" value="1537032.0"/>
									<Node score="0.011638153846153847">
										<SimplePredicate field="double(3)" operator="lessOrEqual" value="68685.0"/>
									</Node>
								</Node>
								<Node score="0.0251904">
									<SimplePredicate field="double(0)" operator="lessOrEqual" value="1584088.5"/>
								</Node>
							</Node>
							<Node score="0.014310399999999996">
								<SimplePredicate field="double(3)" operator="lessOrEqual" value="102136.0"/>
								<Node score="0.008352">
									<SimplePredicate field="double(3)" operator="lessOrEqual" value="75559.5"/>
								</Node>
							</Node>
							<Node score="0.04798675862068964">
								<SimplePredicate field="double(3)" operator="lessOrEqual" value="109997.0"/>
							</Node>
						</Node>
						<Node score="0.05193142857142857">
							<SimplePredicate field="double(2)" operator="lessOrEqual" value="8.5"/>
							<Node score="0.07597629629629632">
								<SimplePredicate field="double(2)" operator="lessOrEqual" value="7.5"/>
								<Node score="0.036864000000000015">
									<SimplePredicate field="double(3)" operator="lessOrEqual" value="81771.5"/>
								</Node>
							</Node>
							<Node score="0.014293627586206895">
								<SimplePredicate field="double(3)" operator="lessOrEqual" value="110151.5"/>
							</Node>
						</Node>
						<Node score="0.057553454545454553">
							<SimplePredicate field="double(2)" operator="lessOrEqual" value="11.5"/>
							<Node score="0.08937988785046731">
								<SimplePredicate field="double(0)" operator="lessOrEqual" value="1718738.0"/>
							</Node>
						</Node>
						<Node score="0.008292515337423303">
							<SimplePredicate field="double(2)" operator="lessOrEqual" value="12.5"/>
						</Node>
					</Node>
				</TreeModel>
			</Segment>
			<Segment id="2">
				<True/>
				<TreeModel functionName="regression" missingValueStrategy="nullPrediction" noTrueChildStrategy="returnLastPrediction">
					<MiningSchema>
						<MiningField name="double(2)"/>
						<MiningField name="double(0)"/>
						<MiningField name="double(3)"/>
					</MiningSchema>
					<Node score="0.08120608450704228">
						<True/>
						<Node score="0.141312">
							<SimplePredicate field="double(2)" operator="lessOrEqual" value="1.5"/>
							<Node score="0.013312">
								<SimplePredicate field="double(2)" operator="lessOrEqual" value="0.5"/>
								<Node score="0.022528000000000003">
									<SimplePredicate field="double(3)" operator="lessOrEqual" value="65705.5"/>
									<Node score="0.013312000000000001">
										<SimplePredicate field="double(3)" operator="lessOrEqual" value="64969.5"/>
									</Node>
								</Node>
								<Node score="0.017408">
									<SimplePredicate field="double(0)" operator="lessOrEqual" value="1138414.5"/>
									<Node score="0.015530666666666667">
										<SimplePredicate field="double(0)" operator="lessOrEqual" value="1078070.5"/>
									</Node>
								</Node>
								<Node score="0.015462400000000003">
									<SimplePredicate field="double(0)" operator="lessOrEqual" value="1758158.5"/>
								</Node>
							</Node>
							<Node score="0.17454545454545456">
								<SimplePredicate field="double(3)" operator="lessOrEqual" value="105073.0"/>
								<Node score="0.15376091428571428">
									<SimplePredicate field="double(0)" operator="lessOrEqual" value="1462460.5"/>
									<Node score="0.1699301052631579">
										<SimplePredicate field="double(0)" operator="lessOrEqual" value="1101480.0"/>
									</Node>
								</Node>
								<Node score="0.167552">
									<SimplePredicate field="double(3)" operator="lessOrEqual" value="99006.0"/>
								</Node>
							</Node>
							<Node score="0.14405632">
								<SimplePredicate field="double(3)" operator="lessOrEqual" value="109818.5"/>
								<Node score="0.120832">
									<SimplePredicate field="double(0)" operator="lessOrEqual" value="1683700.5"/>
								</Node>
							</Node>
							<Node score="0.177152">
								<SimplePredicate field="double(0)" operator="lessOrEqual" value="1774605.0"/>
							</Node>
						</Node>
						<Node score="0.100352">
							<SimplePredicate field="double(2)" operator="lessOrEqual" value="5.5"/>
							<Node score="0.015127272727272724">
								<SimplePredicate field="double(0)" operator="lessOrEqual" value="1628014.0"/>
								<Node score="0.00861572413793103">
									<SimplePredicate field="double(3)" operator="lessOrEqual" value="75559.5"/>
									<Node score="0.00768">
										<SimplePredicate field="double(0)" operator="lessOrEqual" value="1028232.5"/>
									</Node>
								</Node>
								<Node score="0.01053630638297872">
									<SimplePredicate field="double(2)" operator="lessOrEqual" value="4.5"/>
								</Node>
							</Node>
							<Node score="0.017038436090225553">
								<SimplePredicate field="double(2)" operator="lessOrEqual" value="4.5"/>
								<Node score="0.082944">
									<SimplePredicate field="double(0)" operator="lessOrEqual" value="1634172.5"/>
								</Node>
							</Node>
							<Node score="0.05667617391304349">
								<SimplePredicate field="double(0)" operator="lessOrEqual" value="1758432.5"/>
							</Node>
						</Node>
						<Node score="0.054968319999999994">
							<SimplePredicate field="double(2)" operator="lessOrEqual" value="11.5"/>
							<Node score="0.01410685314685314">
								<SimplePredicate field="double(2)" operator="lessOrEqual" value="8.5"/>
								<Node score="0.06275883591331273">
									<SimplePredicate field="double(2)" operator="lessOrEqual" value="7.5"/>
								</Node>
							</Node>
							<Node score="0.08857000468384078">
								<SimplePredicate field="double(3)" operator="lessOrEqual" value="107421.5"/>
							</Node>
						</Node>
						<Node score="0.00856252631578947">
							<SimplePredicate field="double(2)" operator="lessOrEqual" value="12.5"/>
							<Node score="0.007168000000000001">
								<SimplePredicate field="double(3)" operator="lessOrEqual" value="64899.0"/>
							</Node>
						</Node>
						<Node score="0.052827654320987634">
							<SimplePredicate field="double(2)" operator="lessOrEqual" value="14.5"/>
						</Node>
					</Node>
				</TreeModel>
			</Segment>
			<Segment id="3">
				<True/>
				<TreeModel functionName="regression" missingValueStrategy="nullPrediction" noTrueChildStrategy="returnLastPrediction">
					<MiningSchema>
						<MiningField name="double(2)"/>
						<MiningField name="double(0)"/>
						<MiningField name="double(3)"/>
					</MiningSchema>
					<Node score="0.10112000000000002">
						<True/>
						<Node score="0.129024">
							<SimplePredicate field="double(2)" operator="lessOrEqual" value="1.5"/>
							<Node score="0.015359999999999999">
								<SimplePredicate field="double(2)" operator="lessOrEqual" value="0.5"/>
								<Node score="0.022528000000000003">
									<SimplePredicate field="double(3)" operator="lessOrEqual" value="65705.5"/>
									<Node score="0.014848">
										<SimplePredicate field="double(3)" operator="lessOrEqual" value="64899.0"/>
										<Node score="0.016384">
											<SimplePredicate field="double(3)" operator="lessOrEqual" value="64265.0"/>
										</Node>
									</Node>
									<Node score="0.024576">
										<SimplePredicate field="double(3)" operator="lessOrEqual" value="65193.5"/>
									</Node>
								</Node>
								<Node score="0.015552633663366334">
									<SimplePredicate field="double(0)" operator="lessOrEqual" value="1706401.0"/>
									<Node score="0.016849454545454546">
										<SimplePredicate field="double(3)" operator="lessOrEqual" value="72308.5"/>
									</Node>
								</Node>
								<Node score="0.0256">
									<SimplePredicate field="double(0)" operator="lessOrEqual" value="1718738.0"/>
								</Node>
							</Node>
							<Node score="0.16735085714285716">
								<SimplePredicate field="double(0)" operator="lessOrEqual" value="1774605.0"/>
								<Node score="0.1565211782945736">
									<SimplePredicate field="double(3)" operator="lessOrEqual" value="109632.5"/>
									<Node score="0.1672704">
										<SimplePredicate field="double(0)" operator="lessOrEqual" value="1098955.5"/>
									</Node>
								</Node>
								<Node score="0.18432">
									<SimplePredicate field="double(3)" operator="lessOrEqual" value="109997.0"/>
								</Node>
							</Node>
							<Node score="0.141312">
								<SimplePredicate field="double(3)" operator="lessOrEqual" value="111717.5"/>
							</Node>
						</Node>
						<Node score="0.031744">
							<SimplePredicate field="double(2)" operator="lessOrEqual" value="5.5"/>
							<Node score="0.008503652173913046">
								<SimplePredicate field="double(2)" operator="lessOrEqual" value="4.5"/>
								<Node score="0.010225875862068952">
									<SimplePredicate field="double(3)" operator="lessOrEqual" value="108040.0"/>
									<Node score="0.00854044444444444">
										<SimplePredicate field="double(0)" operator="lessOrEqual" value="1259006.5"/>
									</Node>
								</Node>
								<Node score="0.023978666666666665">
									<SimplePredicate field="double(3)" operator="lessOrEqual" value="109125.5"/>
								</Node>
							</Node>
							<Node score="0.013433491525423726">
								<SimplePredicate field="double(3)" operator="lessOrEqual" value="102136.0"/>
								<Node score="0.009979936507936505">
									<SimplePredicate field="double(3)" operator="lessOrEqual" value="80272.0"/>
								</Node>
							</Node>
							<Node score="0.07448252631578947">
								<SimplePredicate field="double(3)" operator="lessOrEqual" value="108040.0"/>
							</Node>
						</Node>
						<Node score="0.05522515723270439">
							<SimplePredicate field="double(2)" operator="lessOrEqual" value="14.5"/>
							<Node score="0.08731397993311038">
								<SimplePredicate field="double(2)" operator="lessOrEqual" value="11.5"/>
								<Node score="0.05084535922330101">
									<SimplePredicate field="double(2)" operator="lessOrEqual" value="9.5"/>
								</Node>
							</Node>
							<Node score="0.00808895597484276">
								<SimplePredicate field="double(2)" operator="lessOrEqual" value="12.5"/>
							</Node>
						</Node>
						<Node score="0.08035328000000001">
							<SimplePredicate field="double(0)" operator="lessOrEqual" value="1704303.5"/>
							<Node score="0.08544255999999999">
								<SimplePredicate field="double(3)" operator="lessOrEqual" value="79820.0"/>
							</Node>
						</Node>
						<Node score="0.08955345454545455">
							<SimplePredicate field="double(0)" operator="lessOrEqual" value="1757365.5"/>
						</Node>
					</Node>
				</TreeModel>
			</Segment>
			<Segment id="4">
				<True/>
				<TreeModel functionName="regression" missingValueStrategy="nullPrediction" noTrueChildStrategy="returnLastPrediction">
					<MiningSchema>
						<MiningField name="double(2)"/>
						<MiningField name="double(0)"/>
						<MiningField name="double(3)"/>
					</MiningSchema>
					<Node score="0.08293703401360547">
						<True/>
						<Node score="0.16675446153846155">
							<SimplePredicate field="double(2)" operator="lessOrEqual" value="1.5"/>
							<Node score="0.016283278688524593">
								<SimplePredicate field="double(2)" operator="lessOrEqual" value="0.5"/>
								<Node score="0.030719999999999997">
									<SimplePredicate field="double(3)" operator="lessOrEqual" value="72136.5"/>
									<Node score="0.01711542857142857">
										<SimplePredicate field="double(0)" operator="lessOrEqual" value="1146534.5"/>
										<Node score="0.020992">
											<SimplePredicate field="double(0)" operator="lessOrEqual" value="1051284.0"/>
										</Node>
									</Node>
								</Node>
								<Node score="0.013568">
									<SimplePredicate field="double(3)" operator="lessOrEqual" value="90219.5"/>
									<Node score="0.01567030303030303">
										<SimplePredicate field="double(0)" operator="lessOrEqual" value="1406211.0"/>
									</Node>
								</Node>
								<Node score="0.01752177777777778">
									<SimplePredicate field="double(0)" operator="lessOrEqual" value="1495525.5"/>
								</Node>
							</Node>
							<Node score="0.13903644444444443">
								<SimplePredicate field="double(0)" operator="lessOrEqual" value="1406211.0"/>
								<Node score="0.17876114285714287">
									<SimplePredicate field="double(0)" operator="lessOrEqual" value="1302506.5"/>
									<Node score="0.15972266666666668">
										<SimplePredicate field="double(0)" operator="lessOrEqual" value="1276568.0"/>
									</Node>
								</Node>
								<Node score="0.1523604210526316">
									<SimplePredicate field="double(3)" operator="lessOrEqual" value="85076.5"/>
								</Node>
							</Node>
							<Node score="0.16651982978723404">
								<SimplePredicate field="double(3)" operator="lessOrEqual" value="105342.0"/>
								<Node score="0.1792">
									<SimplePredicate field="double(0)" operator="lessOrEqual" value="1444923.5"/>
								</Node>
							</Node>
							<Node score="0.14097066666666666">
								<SimplePredicate field="double(0)" operator="lessOrEqual" value="1731433.5"/>
							</Node>
						</Node>
						<Node score="0.05230484210526315">
							<SimplePredicate field="double(2)" operator="lessOrEqual" value="5.5"/>
							<Node score="0.008885677419354835">
								<SimplePredicate field="double(2)" operator="lessOrEqual" value="4.5"/>
								<Node score="0.00937731506849314">
									<SimplePredicate field="double(3)" operator="lessOrEqual" value="98725.0"/>
									<Node score="0.008368551724137923">
										<SimplePredicate field="double(0)" operator="lessOrEqual" value="1304325.5"/>
									</Node>
								</Node>
								<Node score="0.018098604651162795">
									<SimplePredicate field="double(3)" operator="lessOrEqual" value="102624.5"/>
								</Node>
							</Node>
							<Node score="0.021337945945945947">
								<SimplePredicate field="double(0)" operator="lessOrEqual" value="1628593.5"/>
								<Node score="0.012879323943661968">
									<SimplePredicate field="double(0)" operator="lessOrEqual" value="1324064.0"/>
								</Node>
							</Node>
							<Node score="0.08888320000000001">
								<SimplePredicate field="double(0)" operator="lessOrEqual" value="1641987.0"/>
							</Node>
						</Node>
						<Node score="0.0852000855614973">
							<SimplePredicate field="double(2)" operator="lessOrEqual" value="11.5"/>
							<Node score="0.03860961073825503">
								<SimplePredicate field="double(2)" operator="lessOrEqual" value="9.5"/>
								<Node score="0.06319899686520374">
									<SimplePredicate field="double(2)" operator="lessOrEqual" value="7.5"/>
								</Node>
							</Node>
							<Node score="0.11651777049180327">
								<SimplePredicate field="double(3)" operator="lessOrEqual" value="81771.5"/>
							</Node>
						</Node>
						<Node score="0.008198826666666659">
							<SimplePredicate field="double(2)" operator="lessOrEqual" value="12.5"/>
							<Node score="0.00930504347826087">
								<SimplePredicate field="double(3)" operator="lessOrEqual" value="73228.0"/>
							</Node>
						</Node>
						<Node score="0.05486821052631578">
							<SimplePredicate field="double(2)" operator="lessOrEqual" value="14.5"/>
						</Node>
					</Node>
				</TreeModel>
			</Segment>
			<Segment id="5">
				<True/>
				<TreeModel functionName="regression" missingValueStrategy="nullPrediction" noTrueChildStrategy="returnLastPrediction">
					<MiningSchema>
						<MiningField name="double(2)"/>
						<MiningField name="double(0)"/>
						<MiningField name="double(3)"/>
					</MiningSchema>
					<Node score="0.06297934640522872">
						<True/>
						<Node score="0.15389866666666668">
							<SimplePredicate field="double(2)" operator="lessOrEqual" value="1.5"/>
							<Node score="0.015854035087719296">
								<SimplePredicate field="double(2)" operator="lessOrEqual" value="0.5"/>
								<Node score="0.0256">
									<SimplePredicate field="double(3)" operator="lessOrEqual" value="68967.0"/>
									<Node score="0.015360000000000002">
										<SimplePredicate field="double(3)" operator="lessOrEqual" value="68909.0"/>
										<Node score="0.018090666666666665">
											<SimplePredicate field="double(3)" operator="lessOrEqual" value="67122.0"/>
										</Node>
									</Node>
								</Node>
								<Node score="0.015453090909090906">
									<SimplePredicate field="double(0)" operator="lessOrEqual" value="1289626.5"/>
									<Node score="0.014774857142857142">
										<SimplePredicate field="double(0)" operator="lessOrEqual" value="1217827.5"/>
									</Node>
								</Node>
								<Node score="0.0177152">
									<SimplePredicate field="double(3)" operator="lessOrEqual" value="82875.5"/>
								</Node>
							</Node>
							<Node score="0.16998400000000002">
								<SimplePredicate field="double(0)" operator="lessOrEqual" value="1138414.5"/>
								<Node score="0.13960533333333333">
									<SimplePredicate field="double(3)" operator="lessOrEqual" value="67401.5"/>
									<Node score="0.17442133333333334">
										<SimplePredicate field="double(3)" operator="lessOrEqual" value="66988.5"/>
									</Node>
								</Node>
								<Node score="0.1792">
									<SimplePredicate field="double(3)" operator="lessOrEqual" value="69492.5"/>
								</Node>
							</Node>
							<Node score="0.1648813559322034">
								<SimplePredicate field="double(3)" operator="lessOrEqual" value="105131.0"/>
								<Node score="0.15304461016949153">
									<SimplePredicate field="double(0)" operator="lessOrEqual" value="1336114.5"/>
								</Node>
							</Node>
							<Node score="0.13346133333333332">
								<SimplePredicate field="double(0)" operator="lessOrEqual" value="1689827.0"/>
							</Node>
						</Node>
						<Node score="0.09682488888888889">
							<SimplePredicate field="double(2)" operator="lessOrEqual" value="5.5"/>
							<Node score="0.008078222222222223">
								<SimplePredicate field="double(3)" operator="lessOrEqual" value="102136.0"/>
								<Node score="0.012215595959595954">
									<SimplePredicate field="double(0)" operator="lessOrEqual" value="1537032.0"/>
									<Node score="0.009287358885017413">
										<SimplePredicate field="double(2)" operator="lessOrEqual" value="4.5"/>
									</Node>
								</Node>
								<Node score="0.018583703703703703">
									<SimplePredicate field="double(2)" operator="lessOrEqual" value="3.5"/>
								</Node>
							</Node>
							<Node score="0.008218947368421053">
								<SimplePredicate field="double(2)" operator="lessOrEqual" value="4.5"/>
								<Node score="0.01926981818181818">
									<SimplePredicate field="double(2)" operator="lessOrEqual" value="3.5"/>
								</Node>
							</Node>
							<Node score="0.04634331428571428">
								<SimplePredicate field="double(0)" operator="lessOrEqual" value="1759945.0"/>
							</Node>
						</Node>
						<Node score="0.01637593700787401">
							<SimplePredicate field="double(2)" operator="lessOrEqual" value="8.5"/>
							<Node score="0.07535653012048198">
								<SimplePredicate field="double(2)" operator="lessOrEqual" value="7.5"/>
								<Node score="0.016643820895522382">
									<SimplePredicate field="double(0)" operator="lessOrEqual" value="1183201.5"/>
								</Node>
							</Node>
							<Node score="0.0075580952380952405">
								<SimplePredicate field="double(3)" operator="lessOrEqual" value="74965.0"/>
							</Node>
						</Node>
						<Node score="0.05604832653061224">
							<SimplePredicate field="double(2)" operator="lessOrEqual" value="11.5"/>
							<Node score="0.08987823325062037">
								<SimplePredicate field="double(0)" operator="lessOrEqual" value="1718738.0"/>
							</Node>
						</Node>
						<Node score="0.00832762913907284">
							<SimplePredicate field="double(2)" operator="lessOrEqual" value="12.5"/>
						</Node>
					</Node>
				</TreeModel>
			</Segment>
			<Segment id="6">
				<True/>
				<TreeModel functionName="regression" missingValueStrategy="nullPrediction" noTrueChildStrategy="returnLastPrediction">
					<MiningSchema>
						<MiningField name="double(2)"/>
						<MiningField name="double(0)"/>
						<MiningField name="double(3)"/>
					</MiningSchema>
					<Node score="0.09506133333333333">
						<True/>
						<Node score="0.016267636363636363">
							<SimplePredicate field="double(2)" operator="lessOrEqual" value="8.5"/>
							<Node score="0.15241083870967745">
								<SimplePredicate field="double(2)" operator="lessOrEqual" value="1.5"/>
								<Node score="0.015040000000000003">
									<SimplePredicate field="double(2)" operator="lessOrEqual" value="0.5"/>
									<Node score="0.0256">
										<SimplePredicate field="double(3)" operator="lessOrEqual" value="69476.0"/>
										<Node score="0.016793600000000002">
											<SimplePredicate field="double(0)" operator="lessOrEqual" value="1102536.0"/>
										</Node>
									</Node>
									<Node score="0.015984390243902434">
										<SimplePredicate field="double(0)" operator="lessOrEqual" value="1682023.0"/>
									</Node>
								</Node>
								<Node score="0.1683456">
									<SimplePredicate field="double(0)" operator="lessOrEqual" value="1098955.5"/>
									<Node score="0.177664">
										<SimplePredicate field="double(0)" operator="lessOrEqual" value="1034792.5"/>
									</Node>
								</Node>
								<Node score="0.15955781818181822">
									<SimplePredicate field="double(0)" operator="lessOrEqual" value="1640611.0"/>
								</Node>
							</Node>
							<Node score="0.04800387878787879">
								<SimplePredicate field="double(2)" operator="lessOrEqual" value="5.5"/>
								<Node score="0.012394985074626866">
									<SimplePredicate field="double(3)" operator="lessOrEqual" value="102344.0"/>
									<Node score="0.009483034482758636">
										<SimplePredicate field="double(0)" operator="lessOrEqual" value="1537032.0"/>
									</Node>
								</Node>
								<Node score="0.012106168224299056">
									<SimplePredicate field="double(2)" operator="lessOrEqual" value="4.5"/>
								</Node>
							</Node>
							<Node score="0.07730580645161296">
								<SimplePredicate field="double(2)" operator="lessOrEqual" value="7.5"/>
								<Node score="0.035579936507936505">
									<SimplePredicate field="double(0)" operator="lessOrEqual" value="1294058.5"/>
								</Node>
							</Node>
							<Node score="0.008473098039215688">
								<SimplePredicate field="double(0)" operator="lessOrEqual" value="1319436.0"/>
							</Node>
						</Node>
						<Node score="0.0865341686746988">
							<SimplePredicate field="double(2)" operator="lessOrEqual" value="11.5"/>
							<Node score="0.0616809411764706">
								<SimplePredicate field="double(2)" operator="lessOrEqual" value="9.5"/>
								<Node score="0.0405504">
									<SimplePredicate field="double(3)" operator="lessOrEqual" value="105505.5"/>
									<Node score="0.06938245378151264">
										<SimplePredicate field="double(0)" operator="lessOrEqual" value="1584088.5"/>
									</Node>
								</Node>
								<Node score="0.499712">
									<SimplePredicate field="double(0)" operator="lessOrEqual" value="1689827.0"/>
								</Node>
							</Node>
							<Node score="0.13641846153846157">
								<SimplePredicate field="double(3)" operator="lessOrEqual" value="91685.5"/>
								<Node score="0.08238005797101447">
									<SimplePredicate field="double(3)" operator="lessOrEqual" value="74131.0"/>
								</Node>
							</Node>
							<Node score="0.0587776">
								<SimplePredicate field="double(0)" operator="lessOrEqual" value="1519228.0"/>
							</Node>
						</Node>
						<Node score="0.009898666666666665">
							<SimplePredicate field="double(2)" operator="lessOrEqual" value="12.5"/>
							<Node score="0.033792">
								<SimplePredicate field="double(0)" operator="lessOrEqual" value="1171641.0"/>
								<Node score="0.008608">
									<SimplePredicate field="double(0)" operator="lessOrEqual" value="1163028.0"/>
								</Node>
							</Node>
							<Node score="0.008078222222222218">
								<SimplePredicate field="double(0)" operator="lessOrEqual" value="1755579.0"/>
							</Node>
						</Node>
						<Node score="0.03276800000000001">
							<SimplePredicate field="double(2)" operator="lessOrEqual" value="14.5"/>
							<Node score="0.07453738922155694">
								<SimplePredicate field="double(2)" operator="lessOrEqual" value="13.5"/>
							</Node>
						</Node>
						<Node score="0.08039537777777778">
							<SimplePredicate field="double(3)" operator="lessOrEqual" value="106519.5"/>
						</Node>
					</Node>
				</TreeModel>
			</Segment>
			<Segment id="7">
				<True/>
				<TreeModel functionName="regression" missingValueStrategy="nullPrediction" noTrueChildStrategy="returnLastPrediction">
					<MiningSchema>
						<MiningField name="double(2)"/>
						<MiningField name="double(0)"/>
						<MiningField name="double(3)"/>
					</MiningSchema>
					<Node score="0.06160923849372384">
						<True/>
						<Node score="0.15720763076923072">
							<SimplePredicate field="double(2)" operator="lessOrEqual" value="1.5"/>
							<Node score="0.0162816">
								<SimplePredicate field="double(2)" operator="lessOrEqual" value="0.5"/>
								<Node score="0.022528000000000003">
									<SimplePredicate field="double(3)" operator="lessOrEqual" value="65705.5"/>
									<Node score="0.016384">
										<SimplePredicate field="double(0)" operator="lessOrEqual" value="1038377.0"/>
									</Node>
									<Node score="0.024576">
										<SimplePredicate field="double(0)" operator="lessOrEqual" value="1043087.0"/>
									</Node>
								</Node>
								<Node score="0.01792">
									<SimplePredicate field="double(3)" operator="lessOrEqual" value="89130.0"/>
									<Node score="0.015796906666666662">
										<SimplePredicate field="double(3)" operator="lessOrEqual" value="87351.0"/>
									</Node>
								</Node>
								<Node score="0.014440489795918367">
									<SimplePredicate field="double(3)" operator="lessOrEqual" value="106820.0"/>
								</Node>
							</Node>
							<Node score="0.167936">
								<SimplePredicate field="double(3)" operator="lessOrEqual" value="67122.0"/>
								<Node score="0.18432">
									<SimplePredicate field="double(3)" operator="lessOrEqual" value="65705.5"/>
									<Node score="0.175616">
										<SimplePredicate field="double(0)" operator="lessOrEqual" value="1040322.0"/>
									</Node>
								</Node>
								<Node score="0.160768">
									<SimplePredicate field="double(0)" operator="lessOrEqual" value="1062721.5"/>
								</Node>
							</Node>
							<Node score="0.1481185882352941">
								<SimplePredicate field="double(0)" operator="lessOrEqual" value="1370852.5"/>
								<Node score="0.1570423829787234">
									<SimplePredicate field="double(0)" operator="lessOrEqual" value="1252356.5"/>
								</Node>
							</Node>
							<Node score="0.17093973333333334">
								<SimplePredicate field="double(0)" operator="lessOrEqual" value="1442919.0"/>
							</Node>
						</Node>
						<Node score="0.053973333333333345">
							<SimplePredicate field="double(2)" operator="lessOrEqual" value="5.5"/>
							<Node score="0.012550564102564095">
								<SimplePredicate field="double(0)" operator="lessOrEqual" value="1675412.5"/>
								<Node score="0.008025302325581391">
									<SimplePredicate field="double(2)" operator="lessOrEqual" value="4.5"/>
									<Node score="0.009143146245059275">
										<SimplePredicate field="double(2)" operator="lessOrEqual" value="3.5"/>
									</Node>
								</Node>
								<Node score="0.03525485714285714">
									<SimplePredicate field="double(3)" operator="lessOrEqual" value="67253.5"/>
								</Node>
							</Node>
							<Node score="0.0225024">
								<SimplePredicate field="double(2)" operator="lessOrEqual" value="4.5"/>
								<Node score="0.01040384">
									<SimplePredicate field="double(3)" operator="lessOrEqual" value="108040.0"/>
								</Node>
							</Node>
							<Node score="0.09318399999999999">
								<SimplePredicate field="double(3)" operator="lessOrEqual" value="105192.0"/>
							</Node>
						</Node>
						<Node score="0.018826429629629625">
							<SimplePredicate field="double(2)" operator="lessOrEqual" value="8.5"/>
							<Node score="0.08712714893617021">
								<SimplePredicate field="double(2)" operator="lessOrEqual" value="7.5"/>
								<Node score="0.05108711926605503">
									<SimplePredicate field="double(3)" operator="lessOrEqual" value="99006.0"/>
								</Node>
							</Node>
							<Node score="0.008067121951219513">
								<SimplePredicate field="double(3)" operator="lessOrEqual" value="74846.0"/>
							</Node>
						</Node>
						<Node score="0.09149378313253011">
							<SimplePredicate field="double(2)" operator="lessOrEqual" value="11.5"/>
							<Node score="0.060501984732824435">
								<SimplePredicate field="double(2)" operator="lessOrEqual" value="9.5"/>
							</Node>
						</Node>
						<Node score="0.008084587412587406">
							<SimplePredicate field="double(2)" operator="lessOrEqual" value="12.5"/>
						</Node>
					</Node>
				</TreeModel>
			</Segment>
			<Segment id="8">
				<True/>
				<TreeModel functionName="regression" missingValueStrategy="nullPrediction" noTrueChildStrategy="returnLastPrediction">
					<MiningSchema>
						<MiningField name="double(2)"/>
						<MiningField name="double(0)"/>
						<MiningField name="double(3)"/>
					</MiningSchema>
					<Node score="0.06294420556745181">
						<True/>
						<Node score="0.15111680000000002">
							<SimplePredicate field="double(2)" operator="lessOrEqual" value="1.5"/>
							<Node score="0.016226461538461537">
								<SimplePredicate field="double(2)" operator="lessOrEqual" value="0.5"/>
								<Node score="0.024576">
									<SimplePredicate field="double(3)" operator="lessOrEqual" value="65584.0"/>
									<Node score="0.013312000000000001">
										<SimplePredicate field="double(0)" operator="lessOrEqual" value="1037557.5"/>
									</Node>
								</Node>
								<Node score="0.0256">
									<SimplePredicate field="double(3)" operator="lessOrEqual" value="68967.0"/>
									<Node score="0.016896000000000005">
										<SimplePredicate field="double(3)" operator="lessOrEqual" value="68870.0"/>
									</Node>
								</Node>
								<Node score="0.015501940594059403">
									<SimplePredicate field="double(3)" operator="lessOrEqual" value="102944.5"/>
								</Node>
							</Node>
							<Node score="0.17792">
								<SimplePredicate field="double(3)" operator="lessOrEqual" value="68843.0"/>
								<Node score="0.186368">
									<SimplePredicate field="double(0)" operator="lessOrEqual" value="1071475.0"/>
									<Node score="0.1755136">
										<SimplePredicate field="double(3)" operator="lessOrEqual" value="66855.5"/>
									</Node>
								</Node>
								<Node score="0.16145066666666666">
									<SimplePredicate field="double(0)" operator="lessOrEqual" value="1076943.5"/>
								</Node>
							</Node>
							<Node score="0.14884758974358972">
								<SimplePredicate field="double(0)" operator="lessOrEqual" value="1345482.5"/>
								<Node score="0.13630577777777775">
									<SimplePredicate field="double(3)" operator="lessOrEqual" value="71929.0"/>
								</Node>
							</Node>
							<Node score="0.16174545454545453">
								<SimplePredicate field="double(0)" operator="lessOrEqual" value="1619175.5"/>
							</Node>
						</Node>
						<Node score="0.050989948717948715">
							<SimplePredicate field="double(2)" operator="lessOrEqual" value="5.5"/>
							<Node score="0.012860235294117648">
								<SimplePredicate field="double(0)" operator="lessOrEqual" value="1628014.0"/>
								<Node score="0.009420799999999993">
									<SimplePredicate field="double(2)" operator="lessOrEqual" value="4.5"/>
									<Node score="0.008575999999999988">
										<SimplePredicate field="double(3)" operator="lessOrEqual" value="81195.0"/>
									</Node>
								</Node>
								<Node score="0.008792275862068967">
									<SimplePredicate field="double(3)" operator="lessOrEqual" value="80602.5"/>
								</Node>
							</Node>
							<Node score="0.0096">
								<SimplePredicate field="double(2)" operator="lessOrEqual" value="4.5"/>
								<Node score="0.022561032258064516">
									<SimplePredicate field="double(3)" operator="lessOrEqual" value="103866.5"/>
								</Node>
							</Node>
							<Node score="0.0894976">
								<SimplePredicate field="double(3)" operator="lessOrEqual" value="102624.5"/>
							</Node>
						</Node>
						<Node score="0.019480380952380947">
							<SimplePredicate field="double(2)" operator="lessOrEqual" value="8.5"/>
							<Node score="0.10640822857142858">
								<SimplePredicate field="double(2)" operator="lessOrEqual" value="7.5"/>
								<Node score="0.04994981526104419">
									<SimplePredicate field="double(0)" operator="lessOrEqual" value="1683764.0"/>
								</Node>
							</Node>
							<Node score="0.00848139130434783">
								<SimplePredicate field="double(3)" operator="lessOrEqual" value="74770.0"/>
							</Node>
						</Node>
						<Node score="0.09132408163265306">
							<SimplePredicate field="double(2)" operator="lessOrEqual" value="11.5"/>
							<Node score="0.05918340740740741">
								<SimplePredicate field="double(2)" operator="lessOrEqual" value="9.5"/>
							</Node>
						</Node>
						<Node score="0.008167325301204814">
							<SimplePredicate field="double(2)" operator="lessOrEqual" value="12.5"/>
						</Node>
					</Node>
				</TreeModel>
			</Segment>
			<Segment id="9">
				<True/>
				<TreeModel functionName="regression" missingValueStrategy="nullPrediction" noTrueChildStrategy="returnLastPrediction">
					<MiningSchema>
						<MiningField name="double(2)"/>
						<MiningField name="double(0)"/>
						<MiningField name="double(3)"/>
					</MiningSchema>
					<Node score="0.06480157377049181">
						<True/>
						<Node score="0.1615872">
							<SimplePredicate field="double(2)" operator="lessOrEqual" value="1.5"/>
							<Node score="0.017408">
								<SimplePredicate field="double(2)" operator="lessOrEqual" value="0.5"/>
								<Node score="0.016384">
									<SimplePredicate field="double(0)" operator="lessOrEqual" value="1161259.5"/>
									<Node score="0.016114526315789475">
										<SimplePredicate field="double(0)" operator="lessOrEqual" value="1141734.0"/>
										<Node score="0.018432">
											<SimplePredicate field="double(0)" operator="lessOrEqual" value="1073918.5"/>
										</Node>
									</Node>
									<Node score="0.030719999999999997">
										<SimplePredicate field="double(3)" operator="lessOrEqual" value="72136.5"/>
									</Node>
								</Node>
								<Node score="0.02218666666666667">
									<SimplePredicate field="double(0)" operator="lessOrEqual" value="1683700.5"/>
									<Node score="0.015308282828282829">
										<SimplePredicate field="double(3)" operator="lessOrEqual" value="105012.0"/>
									</Node>
								</Node>
								<Node score="0.01444378947368421">
									<SimplePredicate field="double(3)" operator="lessOrEqual" value="110913.0"/>
								</Node>
							</Node>
							<Node score="0.16429511111111114">
								<SimplePredicate field="double(3)" operator="lessOrEqual" value="71151.0"/>
								<Node score="0.135168">
									<SimplePredicate field="double(3)" operator="lessOrEqual" value="68745.0"/>
									<Node score="0.16853333333333334">
										<SimplePredicate field="double(3)" operator="lessOrEqual" value="68685.0"/>
									</Node>
								</Node>
								<Node score="0.183296">
									<SimplePredicate field="double(0)" operator="lessOrEqual" value="1111610.0"/>
								</Node>
							</Node>
							<Node score="0.17656685714285716">
								<SimplePredicate field="double(0)" operator="lessOrEqual" value="1619175.5"/>
								<Node score="0.15478073469387754">
									<SimplePredicate field="double(3)" operator="lessOrEqual" value="99006.0"/>
								</Node>
							</Node>
							<Node score="0.14309451851851854">
								<SimplePredicate field="double(3)" operator="lessOrEqual" value="109724.0"/>
							</Node>
						</Node>
						<Node score="0.0928">
							<SimplePredicate field="double(2)" operator="lessOrEqual" value="5.5"/>
							<Node score="0.012328959999999993">
								<SimplePredicate field="double(2)" operator="lessOrEqual" value="4.5"/>
								<Node score="0.009176177777777765">
									<SimplePredicate field="double(3)" operator="lessOrEqual" value="96065.0"/>
									<Node score="0.008394013605442171">
										<SimplePredicate field="double(3)" operator="lessOrEqual" value="78692.0"/>
									</Node>
								</Node>
								<Node score="0.051712">
									<SimplePredicate field="double(3)" operator="lessOrEqual" value="97110.5"/>
								</Node>
							</Node>
							<Node score="0.012389386138613852">
								<SimplePredicate field="double(0)" operator="lessOrEqual" value="1634172.5"/>
								<Node score="0.02653090909090909">
									<SimplePredicate field="double(0)" operator="lessOrEqual" value="1076044.0"/>
								</Node>
							</Node>
							<Node score="0.05468918518518518">
								<SimplePredicate field="double(3)" operator="lessOrEqual" value="109885.5"/>
							</Node>
						</Node>
						<Node score="0.01737665306122448">
							<SimplePredicate field="double(2)" operator="lessOrEqual" value="8.5"/>
							<Node score="0.07880425531914892">
								<SimplePredicate field="double(2)" operator="lessOrEqual" value="7.5"/>
								<Node score="0.03559253333333334">
									<SimplePredicate field="double(3)" operator="lessOrEqual" value="80032.5"/>
								</Node>
							</Node>
							<Node score="0.008402823529411765">
								<SimplePredicate field="double(3)" operator="lessOrEqual" value="82424.5"/>
							</Node>
						</Node>
						<Node score="0.05162164705882352">
							<SimplePredicate field="double(2)" operator="lessOrEqual" value="11.5"/>
							<Node score="0.09120376470588233">
								<SimplePredicate field="double(3)" operator="lessOrEqual" value="107421.5"/>
							</Node>
						</Node>
						<Node score="0.00860030379746835">
							<SimplePredicate field="double(2)" operator="lessOrEqual" value="12.5"/>
						</Node>
					</Node>
				</TreeModel>
			</Segment>
			<Segment id="10">
				<True/>
				<TreeModel functionName="regression" missingValueStrategy="nullPrediction" noTrueChildStrategy="returnLastPrediction">
					<MiningSchema>
						<MiningField name="double(2)"/>
						<MiningField name="double(0)"/>
						<MiningField name="double(3)"/>
					</MiningSchema>
					<Node score="0.06383376623376623">
						<True/>
						<Node score="0.1597770322580645">
							<SimplePredicate field="double(2)" operator="lessOrEqual" value="1.5"/>
							<Node score="0.01577447619047619">
								<SimplePredicate field="double(2)" operator="lessOrEqual" value="0.5"/>
								<Node score="0.018724571428571427">
									<SimplePredicate field="double(3)" operator="lessOrEqual" value="74116.0"/>
									<Node score="0.023893333333333332">
										<SimplePredicate field="double(0)" operator="lessOrEqual" value="1051284.0"/>
										<Node score="0.0157696">
											<SimplePredicate field="double(0)" operator="lessOrEqual" value="1038377.0"/>
										</Node>
									</Node>
									<Node score="0.016191999999999998">
										<SimplePredicate field="double(3)" operator="lessOrEqual" value="71658.5"/>
									</Node>
								</Node>
								<Node score="0.013312000000000001">
									<SimplePredicate field="double(0)" operator="lessOrEqual" value="1217827.5"/>
									<Node score="0.015359999999999997">
										<SimplePredicate field="double(3)" operator="lessOrEqual" value="75675.5"/>
									</Node>
								</Node>
								<Node score="0.02048">
									<SimplePredicate field="double(3)" operator="lessOrEqual" value="76497.5"/>
								</Node>
							</Node>
							<Node score="0.1683456">
								<SimplePredicate field="double(3)" operator="lessOrEqual" value="68107.0"/>
								<Node score="0.135168">
									<SimplePredicate field="double(3)" operator="lessOrEqual" value="65193.5"/>
									<Node score="0.17408">
										<SimplePredicate field="double(3)" operator="lessOrEqual" value="64899.0"/>
									</Node>
								</Node>
								<Node score="0.18432">
									<SimplePredicate field="double(0)" operator="lessOrEqual" value="1051284.0"/>
								</Node>
							</Node>
							<Node score="0.13209600000000002">
								<SimplePredicate field="double(0)" operator="lessOrEqual" value="1336114.5"/>
								<Node score="0.1556126896551724">
									<SimplePredicate field="double(0)" operator="lessOrEqual" value="1324064.0"/>
								</Node>
							</Node>
							<Node score="0.17164799999999994">
								<SimplePredicate field="double(3)" operator="lessOrEqual" value="93471.0"/>
							</Node>
						</Node>
						<Node score="0.04123569230769231">
							<SimplePredicate field="double(2)" operator="lessOrEqual" value="5.5"/>
							<Node score="0.009186742857142856">
								<SimplePredicate field="double(3)" operator="lessOrEqual" value="102538.5"/>
								<Node score="0.013465600000000003">
									<SimplePredicate field="double(2)" operator="lessOrEqual" value="3.5"/>
									<Node score="0.008971937823834186">
										<SimplePredicate field="double(3)" operator="lessOrEqual" value="98725.0"/>
									</Node>
								</Node>
								<Node score="0.014092190476190468">
									<SimplePredicate field="double(0)" operator="lessOrEqual" value="1334172.0"/>
								</Node>
							</Node>
							<Node score="0.008101647058823531">
								<SimplePredicate field="double(2)" operator="lessOrEqual" value="4.5"/>
								<Node score="0.018841599999999997">
									<SimplePredicate field="double(2)" operator="lessOrEqual" value="3.5"/>
								</Node>
							</Node>
							<Node score="0.082944">
								<SimplePredicate field="double(3)" operator="lessOrEqual" value="102635.0"/>
							</Node>
						</Node>
						<Node score="0.01655029059829059">
							<SimplePredicate field="double(2)" operator="lessOrEqual" value="8.5"/>
							<Node score="0.07791269406392697">
								<SimplePredicate field="double(2)" operator="lessOrEqual" value="7.5"/>
								<Node score="0.035941477477477474">
									<SimplePredicate field="double(0)" operator="lessOrEqual" value="1280518.5"/>
								</Node>
							</Node>
							<Node score="0.009036800000000001">
								<SimplePredicate field="double(0)" operator="lessOrEqual" value="1197523.0"/>
							</Node>
						</Node>
						<Node score="0.09362020543806646">
							<SimplePredicate field="double(2)" operator="lessOrEqual" value="11.5"/>
							<Node score="0.06399080239520959">
								<SimplePredicate field="double(2)" operator="lessOrEqual" value="9.5"/>
							</Node>
						</Node>
						<Node score="0.008390449612403093">
							<SimplePredicate field="double(2)" operator="lessOrEqual" value="12.5"/>
						</Node>
					</Node>
				</TreeModel>
			</Segment>
			<Segment id="11">
				<True/>
				<TreeModel functionName="regression" missingValueStrategy="nullPrediction" noTrueChildStrategy="returnLastPrediction">
					<MiningSchema>
						<MiningField name="double(2)"/>
						<MiningField name="double(0)"/>
						<MiningField name="double(3)"/>
					</MiningSchema>
					<Node score="0.08405674666666668">
						<True/>
						<Node score="0.15072">
							<SimplePredicate field="double(2)" operator="lessOrEqual" value="1.5"/>
							<Node score="0.01672533333333333">
								<SimplePredicate field="double(2)" operator="lessOrEqual" value="0.5"/>
								<Node score="0.030719999999999997">
									<SimplePredicate field="double(3)" operator="lessOrEqual" value="72247.0"/>
									<Node score="0.017096347826086957">
										<SimplePredicate field="double(0)" operator="lessOrEqual" value="1146534.5"/>
										<Node score="0.015359999999999999">
											<SimplePredicate field="double(3)" operator="lessOrEqual" value="64848.0"/>
										</Node>
									</Node>
								</Node>
								<Node score="0.016937967213114753">
									<SimplePredicate field="double(3)" operator="lessOrEqual" value="109997.0"/>
									<Node score="0.015253014925373138">
										<SimplePredicate field="double(0)" operator="lessOrEqual" value="1449418.5"/>
									</Node>
								</Node>
								<Node score="0.011264000000000001">
									<SimplePredicate field="double(3)" operator="lessOrEqual" value="110913.0"/>
								</Node>
							</Node>
							<Node score="0.1673406511627907">
								<SimplePredicate field="double(3)" operator="lessOrEqual" value="101199.0"/>
								<Node score="0.15247939622641504">
									<SimplePredicate field="double(3)" operator="lessOrEqual" value="83507.5"/>
									<Node score="0.1712128">
										<SimplePredicate field="double(0)" operator="lessOrEqual" value="1098955.5"/>
									</Node>
								</Node>
								<Node score="0.18432">
									<SimplePredicate field="double(3)" operator="lessOrEqual" value="83923.5"/>
								</Node>
							</Node>
							<Node score="0.120832">
								<SimplePredicate field="double(3)" operator="lessOrEqual" value="102344.0"/>
								<Node score="0.137216">
									<SimplePredicate field="double(0)" operator="lessOrEqual" value="1634172.5"/>
								</Node>
							</Node>
							<Node score="0.1615225263157895">
								<SimplePredicate field="double(3)" operator="lessOrEqual" value="106136.5"/>
							</Node>
						</Node>
						<Node score="0.10108342857142857">
							<SimplePredicate field="double(2)" operator="lessOrEqual" value="5.5"/>
							<Node score="0.0253952">
								<SimplePredicate field="double(0)" operator="lessOrEqual" value="1634172.5"/>
								<Node score="0.011468800000000003">
									<SimplePredicate field="double(2)" operator="lessOrEqual" value="4.5"/>
									<Node score="0.009088775757575761">
										<SimplePredicate field="double(0)" operator="lessOrEqual" value="1579595.0"/>
									</Node>
								</Node>
								<Node score="0.01219089655172413">
									<SimplePredicate field="double(0)" operator="lessOrEqual" value="1572492.0"/>
								</Node>
							</Node>
							<Node score="0.008312470588235296">
								<SimplePredicate field="double(2)" operator="lessOrEqual" value="4.5"/>
								<Node score="0.023353313432835813">
									<SimplePredicate field="double(2)" operator="lessOrEqual" value="3.5"/>
								</Node>
							</Node>
							<Node score="0.04466758620689655">
								<SimplePredicate field="double(3)" operator="lessOrEqual" value="110084.5"/>
							</Node>
						</Node>
						<Node score="0.093917986013986">
							<SimplePredicate field="double(2)" operator="lessOrEqual" value="11.5"/>
							<Node score="0.07238144000000003">
								<SimplePredicate field="double(2)" operator="lessOrEqual" value="9.5"/>
								<Node score="0.043821874125874176">
									<SimplePredicate field="double(0)" operator="lessOrEqual" value="1524675.5"/>
								</Node>
							</Node>
							<Node score="0.21060266666666663">
								<SimplePredicate field="double(0)" operator="lessOrEqual" value="1034792.5"/>
							</Node>
						</Node>
						<Node score="0.008049530434782608">
							<SimplePredicate field="double(2)" operator="lessOrEqual" value="12.5"/>
							<Node score="0.008836129032258066">
								<SimplePredicate field="double(0)" operator="lessOrEqual" value="1218792.5"/>
							</Node>
						</Node>
						<Node score="0.054143214723926365">
							<SimplePredicate field="double(2)" operator="lessOrEqual" value="14.5"/>
						</Node>
					</Node>
				</TreeModel>
			</Segment>
			<Segment id="12">
				<True/>
				<TreeModel functionName="regression" missingValueStrategy="nullPrediction" noTrueChildStrategy="returnLastPrediction">
					<MiningSchema>
						<MiningField name="double(2)"/>
						<MiningField name="double(0)"/>
						<MiningField name="double(3)"/>
					</MiningSchema>
					<Node score="0.0897024">
						<True/>
						<Node score="0.014351170370370366">
							<SimplePredicate field="double(2)" operator="lessOrEqual" value="8.5"/>
							<Node score="0.15563877477477478">
								<SimplePredicate field="double(2)" operator="lessOrEqual" value="1.5"/>
								<Node score="0.016541538461538458">
									<SimplePredicate field="double(2)" operator="lessOrEqual" value="0.5"/>
									<Node score="0.024064000000000002">
										<SimplePredicate field="double(3)" operator="lessOrEqual" value="65705.5"/>
										<Node score="0.016384">
											<SimplePredicate field="double(0)" operator="lessOrEqual" value="1038377.0"/>
										</Node>
									</Node>
									<Node score="0.0156634074074074">
										<SimplePredicate field="double(3)" operator="lessOrEqual" value="104185.5"/>
									</Node>
								</Node>
								<Node score="0.1635328">
									<SimplePredicate field="double(3)" operator="lessOrEqual" value="67122.0"/>
									<Node score="0.177664">
										<SimplePredicate field="double(3)" operator="lessOrEqual" value="64848.0"/>
									</Node>
								</Node>
								<Node score="0.13358545454545456">
									<SimplePredicate field="double(3)" operator="lessOrEqual" value="70032.5"/>
								</Node>
							</Node>
							<Node score="0.050333538461538464">
								<SimplePredicate field="double(2)" operator="lessOrEqual" value="5.5"/>
								<Node score="0.015055768115942026">
									<SimplePredicate field="double(0)" operator="lessOrEqual" value="1685465.5"/>
									<Node score="0.00948873607748184">
										<SimplePredicate field="double(2)" operator="lessOrEqual" value="4.5"/>
									</Node>
								</Node>
								<Node score="0.016552119402985066">
									<SimplePredicate field="double(2)" operator="lessOrEqual" value="4.5"/>
								</Node>
							</Node>
							<Node score="0.07691145578231297">
								<SimplePredicate field="double(2)" operator="lessOrEqual" value="7.5"/>
								<Node score="0.040498196078431345">
									<SimplePredicate field="double(2)" operator="lessOrEqual" value="6.5"/>
								</Node>
							</Node>
							<Node score="0.007700480000000003">
								<SimplePredicate field="double(3)" operator="lessOrEqual" value="75039.5"/>
							</Node>
						</Node>
						<Node score="0.09040388785046725">
							<SimplePredicate field="double(2)" operator="lessOrEqual" value="11.5"/>
							<Node score="0.019771076923076926">
								<SimplePredicate field="double(2)" operator="lessOrEqual" value="9.5"/>
								<Node score="0.02104888888888889">
									<SimplePredicate field="double(0)" operator="lessOrEqual" value="1370852.5"/>
									<Node score="0.05503593650793651">
										<SimplePredicate field="double(3)" operator="lessOrEqual" value="82718.5"/>
									</Node>
								</Node>
								<Node score="0.09261686153846155">
									<SimplePredicate field="double(3)" operator="lessOrEqual" value="107501.5"/>
								</Node>
							</Node>
							<Node score="0.44543999999999995">
								<SimplePredicate field="double(3)" operator="lessOrEqual" value="64675.0"/>
								<Node score="0.136192">
									<SimplePredicate field="double(3)" operator="lessOrEqual" value="64265.0"/>
								</Node>
							</Node>
							<Node score="0.07193941333333334">
								<SimplePredicate field="double(0)" operator="lessOrEqual" value="1186086.5"/>
							</Node>
						</Node>
						<Node score="0.007941224489795914">
							<SimplePredicate field="double(2)" operator="lessOrEqual" value="12.5"/>
							<Node score="0.021504000000000002">
								<SimplePredicate field="double(0)" operator="lessOrEqual" value="1186086.5"/>
								<Node score="0.008073846153846155">
									<SimplePredicate field="double(0)" operator="lessOrEqual" value="1163028.0"/>
								</Node>
							</Node>
							<Node score="0.008428307692307692">
								<SimplePredicate field="double(0)" operator="lessOrEqual" value="1273713.5"/>
							</Node>
						</Node>
						<Node score="0.035653818181818175">
							<SimplePredicate field="double(2)" operator="lessOrEqual" value="14.5"/>
							<Node score="0.07412696103896106">
								<SimplePredicate field="double(2)" operator="lessOrEqual" value="13.5"/>
							</Node>
						</Node>
						<Node score="0.07805497744360898">
							<SimplePredicate field="double(0)" operator="lessOrEqual" value="1687209.5"/>
						</Node>
					</Node>
				</TreeModel>
			</Segment>
			<Segment id="13">
				<True/>
				<TreeModel functionName="regression" missingValueStrategy="nullPrediction" noTrueChildStrategy="returnLastPrediction">
					<MiningSchema>
						<MiningField name="double(2)"/>
						<MiningField name="double(0)"/>
						<MiningField name="double(3)"/>
					</MiningSchema>
					<Node score="0.08299651282051282">
						<True/>
						<Node score="0.026893473684210526">
							<SimplePredicate field="double(2)" operator="lessOrEqual" value="8.5"/>
							<Node score="0.15900858181818184">
								<SimplePredicate field="double(2)" operator="lessOrEqual" value="1.5"/>
								<Node score="0.016128">
									<SimplePredicate field="double(2)" operator="lessOrEqual" value="0.5"/>
									<Node score="0.01984">
										<SimplePredicate field="double(0)" operator="lessOrEqual" value="1554142.5"/>
										<Node score="0.01597204597701149">
											<SimplePredicate field="double(0)" operator="lessOrEqual" value="1472202.0"/>
										</Node>
									</Node>
									<Node score="0.015260903225806451">
										<SimplePredicate field="double(3)" operator="lessOrEqual" value="108168.0"/>
									</Node>
								</Node>
								<Node score="0.183296">
									<SimplePredicate field="double(3)" operator="lessOrEqual" value="69476.0"/>
									<Node score="0.16903314285714285">
										<SimplePredicate field="double(3)" operator="lessOrEqual" value="68745.0"/>
									</Node>
								</Node>
								<Node score="0.14592">
									<SimplePredicate field="double(0)" operator="lessOrEqual" value="1186086.5"/>
								</Node>
							</Node>
							<Node score="0.06280533333333332">
								<SimplePredicate field="double(2)" operator="lessOrEqual" value="5.5"/>
								<Node score="0.013782032786885239">
									<SimplePredicate field="double(0)" operator="lessOrEqual" value="1628014.0"/>
									<Node score="0.009122108882521485">
										<SimplePredicate field="double(2)" operator="lessOrEqual" value="4.5"/>
									</Node>
								</Node>
								<Node score="0.014578725925925908">
									<SimplePredicate field="double(2)" operator="lessOrEqual" value="4.5"/>
								</Node>
							</Node>
							<Node score="0.08354341463414633">
								<SimplePredicate field="double(2)" operator="lessOrEqual" value="7.5"/>
								<Node score="0.04230238655462186">
									<SimplePredicate field="double(0)" operator="lessOrEqual" value="1313129.5"/>
								</Node>
							</Node>
							<Node score="0.012022857142857132">
								<SimplePredicate field="double(0)" operator="lessOrEqual" value="1524675.5"/>
							</Node>
						</Node>
						<Node score="0.0382976">
							<SimplePredicate field="double(2)" operator="lessOrEqual" value="11.5"/>
							<Node score="0.088128">
								<SimplePredicate field="double(0)" operator="lessOrEqual" value="1709111.5"/>
								<Node score="0.09298707692307695">
									<SimplePredicate field="double(0)" operator="lessOrEqual" value="1688083.0"/>
									<Node score="0.06991644444444443">
										<SimplePredicate field="double(2)" operator="lessOrEqual" value="9.5"/>
									</Node>
								</Node>
								<Node score="0.3193417142857143">
									<SimplePredicate field="double(3)" operator="lessOrEqual" value="105813.0"/>
								</Node>
							</Node>
							<Node score="0.06621866666666666">
								<SimplePredicate field="double(2)" operator="lessOrEqual" value="9.5"/>
								<Node score="0.016756363636363635">
									<SimplePredicate field="double(0)" operator="lessOrEqual" value="1757365.5"/>
								</Node>
							</Node>
							<Node score="0.0797202962962963">
								<SimplePredicate field="double(0)" operator="lessOrEqual" value="1787473.5"/>
							</Node>
						</Node>
						<Node score="0.009984">
							<SimplePredicate field="double(2)" operator="lessOrEqual" value="12.5"/>
							<Node score="0.033792">
								<SimplePredicate field="double(3)" operator="lessOrEqual" value="73228.0"/>
								<Node score="0.008362666666666668">
									<SimplePredicate field="double(3)" operator="lessOrEqual" value="72101.0"/>
								</Node>
							</Node>
							<Node score="0.007987199999999996">
								<SimplePredicate field="double(0)" operator="lessOrEqual" value="1754117.0"/>
							</Node>
						</Node>
						<Node score="0.03426568707482994">
							<SimplePredicate field="double(2)" operator="lessOrEqual" value="14.5"/>
							<Node score="0.0751542857142857">
								<SimplePredicate field="double(2)" operator="lessOrEqual" value="13.5"/>
							</Node>
						</Node>
						<Node score="0.09215999999999999">
							<SimplePredicate field="double(3)" operator="lessOrEqual" value="65705.5"/>
						</Node>
					</Node>
				</TreeModel>
			</Segment>
			<Segment id="14">
				<True/>
				<TreeModel functionName="regression" missingValueStrategy="nullPrediction" noTrueChildStrategy="returnLastPrediction">
					<MiningSchema>
						<MiningField name="double(2)"/>
						<MiningField name="double(0)"/>
						<MiningField name="double(3)"/>
					</MiningSchema>
					<Node score="0.06385637687366168">
						<True/>
						<Node score="0.1526298947368421">
							<SimplePredicate field="double(2)" operator="lessOrEqual" value="1.5"/>
							<Node score="0.017408">
								<SimplePredicate field="double(2)" operator="lessOrEqual" value="0.5"/>
								<Node score="0.030719999999999997">
									<SimplePredicate field="double(0)" operator="lessOrEqual" value="1155949.0"/>
									<Node score="0.0171008">
										<SimplePredicate field="double(0)" operator="lessOrEqual" value="1146534.5"/>
										<Node score="0.023552">
											<SimplePredicate field="double(0)" operator="lessOrEqual" value="1051284.0"/>
										</Node>
									</Node>
								</Node>
								<Node score="0.0128">
									<SimplePredicate field="double(3)" operator="lessOrEqual" value="80602.5"/>
									<Node score="0.015077517241379313">
										<SimplePredicate field="double(3)" operator="lessOrEqual" value="80123.0"/>
									</Node>
								</Node>
								<Node score="0.015747121951219512">
									<SimplePredicate field="double(3)" operator="lessOrEqual" value="106750.5"/>
								</Node>
							</Node>
							<Node score="0.17783466666666667">
								<SimplePredicate field="double(3)" operator="lessOrEqual" value="68685.0"/>
								<Node score="0.186368">
									<SimplePredicate field="double(3)" operator="lessOrEqual" value="66967.5"/>
									<Node score="0.17339733333333332">
										<SimplePredicate field="double(0)" operator="lessOrEqual" value="1064494.0"/>
									</Node>
								</Node>
								<Node score="0.159744">
									<SimplePredicate field="double(0)" operator="lessOrEqual" value="1076943.5"/>
								</Node>
							</Node>
							<Node score="0.130048">
								<SimplePredicate field="double(0)" operator="lessOrEqual" value="1117711.0"/>
								<Node score="0.135168">
									<SimplePredicate field="double(3)" operator="lessOrEqual" value="68842.0"/>
								</Node>
							</Node>
							<Node score="0.15916930612244898">
								<SimplePredicate field="double(0)" operator="lessOrEqual" value="1601236.0"/>
							</Node>
						</Node>
						<Node score="0.04454399999999999">
							<SimplePredicate field="double(2)" operator="lessOrEqual" value="5.5"/>
							<Node score="0.012128293577981647">
								<SimplePredicate field="double(0)" operator="lessOrEqual" value="1628014.0"/>
								<Node score="0.010913185185185182">
									<SimplePredicate field="double(2)" operator="lessOrEqual" value="4.5"/>
									<Node score="0.008511999999999992">
										<SimplePredicate field="double(3)" operator="lessOrEqual" value="78692.0"/>
									</Node>
								</Node>
								<Node score="0.020352000000000002">
									<SimplePredicate field="double(0)" operator="lessOrEqual" value="1076044.0"/>
								</Node>
							</Node>
							<Node score="0.021033513513513513">
								<SimplePredicate field="double(2)" operator="lessOrEqual" value="4.5"/>
								<Node score="0.012002835443037976">
									<SimplePredicate field="double(3)" operator="lessOrEqual" value="108040.0"/>
								</Node>
							</Node>
							<Node score="0.07281777777777777">
								<SimplePredicate field="double(3)" operator="lessOrEqual" value="102624.5"/>
							</Node>
						</Node>
						<Node score="0.015903716814159283">
							<SimplePredicate field="double(2)" operator="lessOrEqual" value="8.5"/>
							<Node score="0.07881632653061228">
								<SimplePredicate field="double(2)" operator="lessOrEqual" value="7.5"/>
								<Node score="0.03668150495049506">
									<SimplePredicate field="double(3)" operator="lessOrEqual" value="80123.0"/>
								</Node>
							</Node>
							<Node score="0.008145454545454548">
								<SimplePredicate field="double(0)" operator="lessOrEqual" value="1199428.5"/>
							</Node>
						</Node>
						<Node score="0.08421330989010992">
							<SimplePredicate field="double(2)" operator="lessOrEqual" value="11.5"/>
							<Node score="0.16315733333333335">
								<SimplePredicate field="double(3)" operator="lessOrEqual" value="64675.0"/>
							</Node>
						</Node>
						<Node score="0.008392784313725485">
							<SimplePredicate field="double(2)" operator="lessOrEqual" value="12.5"/>
						</Node>
					</Node>
				</TreeModel>
			</Segment>
			<Segment id="15">
				<True/>
				<TreeModel functionName="regression" missingValueStrategy="nullPrediction" noTrueChildStrategy="returnLastPrediction">
					<MiningSchema>
						<MiningField name="double(2)"/>
						<MiningField name="double(0)"/>
						<MiningField name="double(3)"/>
					</MiningSchema>
					<Node score="0.08440584827586209">
						<True/>
						<Node score="0.129024">
							<SimplePredicate field="double(2)" operator="lessOrEqual" value="1.5"/>
							<Node score="0.014677333333333334">
								<SimplePredicate field="double(2)" operator="lessOrEqual" value="0.5"/>
								<Node score="0.017066666666666667">
									<SimplePredicate field="double(3)" operator="lessOrEqual" value="70383.0"/>
									<Node score="0.016076800000000002">
										<SimplePredicate field="double(0)" operator="lessOrEqual" value="1101914.0"/>
										<Node score="0.019712">
											<SimplePredicate field="double(3)" operator="lessOrEqual" value="65584.0"/>
										</Node>
									</Node>
									<Node score="0.0256">
										<SimplePredicate field="double(0)" operator="lessOrEqual" value="1103463.0"/>
									</Node>
								</Node>
								<Node score="0.01662030769230769">
									<SimplePredicate field="double(0)" operator="lessOrEqual" value="1758432.5"/>
									<Node score="0.015263396226415095">
										<SimplePredicate field="double(3)" operator="lessOrEqual" value="106750.5"/>
									</Node>
								</Node>
								<Node score="0.01024">
									<SimplePredicate field="double(3)" operator="lessOrEqual" value="110151.5"/>
								</Node>
							</Node>
							<Node score="0.157696">
								<SimplePredicate field="double(3)" operator="lessOrEqual" value="101423.5"/>
								<Node score="0.14588988235294117">
									<SimplePredicate field="double(0)" operator="lessOrEqual" value="1521228.0"/>
									<Node score="0.1622220799999999">
										<SimplePredicate field="double(0)" operator="lessOrEqual" value="1443504.0"/>
									</Node>
								</Node>
								<Node score="0.172736">
									<SimplePredicate field="double(0)" operator="lessOrEqual" value="1601236.0"/>
								</Node>
							</Node>
							<Node score="0.128">
								<SimplePredicate field="double(0)" operator="lessOrEqual" value="1755579.0"/>
								<Node score="0.1479503448275862">
									<SimplePredicate field="double(0)" operator="lessOrEqual" value="1744540.0"/>
								</Node>
							</Node>
							<Node score="0.182272">
								<SimplePredicate field="double(3)" operator="lessOrEqual" value="111127.5"/>
							</Node>
						</Node>
						<Node score="0.11673599999999999">
							<SimplePredicate field="double(2)" operator="lessOrEqual" value="5.5"/>
							<Node score="0.012473507246376804">
								<SimplePredicate field="double(2)" operator="lessOrEqual" value="4.5"/>
								<Node score="0.00827428571428571">
									<SimplePredicate field="double(3)" operator="lessOrEqual" value="96065.0"/>
									<Node score="0.00908619718309858">
										<SimplePredicate field="double(2)" operator="lessOrEqual" value="3.5"/>
									</Node>
								</Node>
								<Node score="0.094208">
									<SimplePredicate field="double(3)" operator="lessOrEqual" value="97110.5"/>
								</Node>
							</Node>
							<Node score="0.016685810526315785">
								<SimplePredicate field="double(0)" operator="lessOrEqual" value="1636924.5"/>
								<Node score="0.040362666666666665">
									<SimplePredicate field="double(0)" operator="lessOrEqual" value="1076044.0"/>
								</Node>
							</Node>
							<Node score="0.060415999999999984">
								<SimplePredicate field="double(0)" operator="lessOrEqual" value="1761347.5"/>
							</Node>
						</Node>
						<Node score="0.05135251063829788">
							<SimplePredicate field="double(2)" operator="lessOrEqual" value="11.5"/>
							<Node score="0.015008385542168674">
								<SimplePredicate field="double(2)" operator="lessOrEqual" value="8.5"/>
								<Node score="0.06183900689655174">
									<SimplePredicate field="double(2)" operator="lessOrEqual" value="7.5"/>
								</Node>
							</Node>
							<Node score="0.09404643555555552">
								<SimplePredicate field="double(0)" operator="lessOrEqual" value="1718738.0"/>
							</Node>
						</Node>
						<Node score="0.009898666666666667">
							<SimplePredicate field="double(2)" operator="lessOrEqual" value="12.5"/>
							<Node score="0.008209964912280697">
								<SimplePredicate field="double(3)" operator="lessOrEqual" value="109724.0"/>
							</Node>
						</Node>
						<Node score="0.05341021782178214">
							<SimplePredicate field="double(2)" operator="lessOrEqual" value="14.5"/>
						</Node>
					</Node>
				</TreeModel>
			</Segment>
			<Segment id="16">
				<True/>
				<TreeModel functionName="regression" missingValueStrategy="nullPrediction" noTrueChildStrategy="returnLastPrediction">
					<MiningSchema>
						<MiningField name="double(2)"/>
						<MiningField name="double(0)"/>
						<MiningField name="double(3)"/>
					</MiningSchema>
					<Node score="0.08309120000000002">
						<True/>
						<Node score="0.1485312">
							<SimplePredicate field="double(2)" operator="lessOrEqual" value="1.5"/>
							<Node score="0.017261714285714286">
								<SimplePredicate field="double(2)" operator="lessOrEqual" value="0.5"/>
								<Node score="0.018432">
									<SimplePredicate field="double(3)" operator="lessOrEqual" value="71151.0"/>
									<Node score="0.016">
										<SimplePredicate field="double(0)" operator="lessOrEqual" value="1102536.0"/>
										<Node score="0.019114666666666665">
											<SimplePredicate field="double(0)" operator="lessOrEqual" value="1058422.5"/>
										</Node>
									</Node>
									<Node score="0.0256">
										<SimplePredicate field="double(0)" operator="lessOrEqual" value="1111876.0"/>
									</Node>
								</Node>
								<Node score="0.01668843243243243">
									<SimplePredicate field="double(3)" operator="lessOrEqual" value="87888.5"/>
									<Node score="0.014874947368421052">
										<SimplePredicate field="double(0)" operator="lessOrEqual" value="1269994.5"/>
									</Node>
								</Node>
								<Node score="0.01498074074074074">
									<SimplePredicate field="double(3)" operator="lessOrEqual" value="106820.0"/>
								</Node>
							</Node>
							<Node score="0.1661480634920635">
								<SimplePredicate field="double(0)" operator="lessOrEqual" value="1682023.0"/>
								<Node score="0.186368">
									<SimplePredicate field="double(0)" operator="lessOrEqual" value="1071475.0"/>
									<Node score="0.17744457142857145">
										<SimplePredicate field="double(3)" operator="lessOrEqual" value="66855.5"/>
									</Node>
								</Node>
								<Node score="0.15310794805194805">
									<SimplePredicate field="double(3)" operator="lessOrEqual" value="85576.5"/>
								</Node>
							</Node>
							<Node score="0.124928">
								<SimplePredicate field="double(0)" operator="lessOrEqual" value="1683764.0"/>
								<Node score="0.120832">
									<SimplePredicate field="double(0)" operator="lessOrEqual" value="1683058.5"/>
								</Node>
							</Node>
							<Node score="0.1792">
								<SimplePredicate field="double(0)" operator="lessOrEqual" value="1685465.5"/>
							</Node>
						</Node>
						<Node score="0.11234742857142857">
							<SimplePredicate field="double(2)" operator="lessOrEqual" value="5.5"/>
							<Node score="0.008746666666666668">
								<SimplePredicate field="double(2)" operator="lessOrEqual" value="4.5"/>
								<Node score="0.012095072463768106">
									<SimplePredicate field="double(0)" operator="lessOrEqual" value="1728638.0"/>
									<Node score="0.009741032727272707">
										<SimplePredicate field="double(2)" operator="lessOrEqual" value="3.5"/>
									</Node>
								</Node>
								<Node score="0.0538624">
									<SimplePredicate field="double(0)" operator="lessOrEqual" value="1744540.0"/>
								</Node>
							</Node>
							<Node score="0.02082133333333333">
								<SimplePredicate field="double(3)" operator="lessOrEqual" value="102136.0"/>
								<Node score="0.012984888888888884">
									<SimplePredicate field="double(0)" operator="lessOrEqual" value="1362183.0"/>
								</Node>
							</Node>
							<Node score="0.05755405128205128">
								<SimplePredicate field="double(0)" operator="lessOrEqual" value="1759945.0"/>
							</Node>
						</Node>
						<Node score="0.09033552802359876">
							<SimplePredicate field="double(2)" operator="lessOrEqual" value="11.5"/>
							<Node score="0.06661454721549642">
								<SimplePredicate field="double(2)" operator="lessOrEqual" value="9.5"/>
								<Node score="0.031628243478260876">
									<SimplePredicate field="double(0)" operator="lessOrEqual" value="1286786.5"/>
								</Node>
							</Node>
							<Node score="0.2308096">
								<SimplePredicate field="double(0)" operator="lessOrEqual" value="1034792.5"/>
							</Node>
						</Node>
						<Node score="0.0094208">
							<SimplePredicate field="double(2)" operator="lessOrEqual" value="12.5"/>
							<Node score="0.008066612244897955">
								<SimplePredicate field="double(0)" operator="lessOrEqual" value="1755579.0"/>
							</Node>
						</Node>
						<Node score="0.057040592592592594">
							<SimplePredicate field="double(2)" operator="lessOrEqual" value="14.5"/>
						</Node>
					</Node>
				</TreeModel>
			</Segment>
			<Segment id="17">
				<True/>
				<TreeModel functionName="regression" missingValueStrategy="nullPrediction" noTrueChildStrategy="returnLastPrediction">
					<MiningSchema>
						<MiningField name="double(2)"/>
						<MiningField name="double(0)"/>
						<MiningField name="double(3)"/>
					</MiningSchema>
					<Node score="0.06240193939393939">
						<True/>
						<Node score="0.15182305882352945">
							<SimplePredicate field="double(2)" operator="lessOrEqual" value="1.5"/>
							<Node score="0.015872">
								<SimplePredicate field="double(2)" operator="lessOrEqual" value="0.5"/>
								<Node score="0.0170496">
									<SimplePredicate field="double(0)" operator="lessOrEqual" value="1146060.5"/>
									<Node score="0.013312000000000001">
										<SimplePredicate field="double(0)" operator="lessOrEqual" value="1034792.5"/>
									</Node>
									<Node score="0.021162666666666663">
										<SimplePredicate field="double(0)" operator="lessOrEqual" value="1051284.0"/>
									</Node>
								</Node>
								<Node score="0.0129024">
									<SimplePredicate field="double(3)" operator="lessOrEqual" value="80573.5"/>
									<Node score="0.01536">
										<SimplePredicate field="double(0)" operator="lessOrEqual" value="1285155.5"/>
									</Node>
								</Node>
								<Node score="0.018432">
									<SimplePredicate field="double(3)" operator="lessOrEqual" value="82190.0"/>
								</Node>
							</Node>
							<Node score="0.17510399999999998">
								<SimplePredicate field="double(0)" operator="lessOrEqual" value="1098955.5"/>
								<Node score="0.1820672">
									<SimplePredicate field="double(3)" operator="lessOrEqual" value="66967.5"/>
									<Node score="0.171008">
										<SimplePredicate field="double(0)" operator="lessOrEqual" value="1040322.0"/>
									</Node>
								</Node>
								<Node score="0.159744">
									<SimplePredicate field="double(3)" operator="lessOrEqual" value="67380.0"/>
								</Node>
							</Node>
							<Node score="0.1508252903225806">
								<SimplePredicate field="double(3)" operator="lessOrEqual" value="83386.5"/>
								<Node score="0.1357824">
									<SimplePredicate field="double(0)" operator="lessOrEqual" value="1120516.0"/>
								</Node>
							</Node>
							<Node score="0.16577772307692307">
								<SimplePredicate field="double(3)" operator="lessOrEqual" value="105073.0"/>
							</Node>
						</Node>
						<Node score="0.06181236363636364">
							<SimplePredicate field="double(2)" operator="lessOrEqual" value="5.5"/>
							<Node score="0.014791111111111113">
								<SimplePredicate field="double(3)" operator="lessOrEqual" value="96065.0"/>
								<Node score="0.008621070422535203">
									<SimplePredicate field="double(2)" operator="lessOrEqual" value="4.5"/>
									<Node score="0.010178560000000001">
										<SimplePredicate field="double(0)" operator="lessOrEqual" value="1098955.5"/>
									</Node>
								</Node>
								<Node score="0.009874285714285714">
									<SimplePredicate field="double(3)" operator="lessOrEqual" value="82491.0"/>
								</Node>
							</Node>
							<Node score="0.010044952380952371">
								<SimplePredicate field="double(2)" operator="lessOrEqual" value="4.5"/>
								<Node score="0.040448000000000005">
									<SimplePredicate field="double(3)" operator="lessOrEqual" value="99006.0"/>
								</Node>
							</Node>
							<Node score="0.02782870588235294">
								<SimplePredicate field="double(3)" operator="lessOrEqual" value="105342.0"/>
							</Node>
						</Node>
						<Node score="0.01572193103448275">
							<SimplePredicate field="double(2)" operator="lessOrEqual" value="8.5"/>
							<Node score="0.07578927510917029">
								<SimplePredicate field="double(2)" operator="lessOrEqual" value="7.5"/>
								<Node score="0.026077203883495152">
									<SimplePredicate field="double(0)" operator="lessOrEqual" value="1212653.5"/>
								</Node>
							</Node>
							<Node score="0.008569263157894741">
								<SimplePredicate field="double(3)" operator="lessOrEqual" value="77764.5"/>
							</Node>
						</Node>
						<Node score="0.10262505494505494">
							<SimplePredicate field="double(2)" operator="lessOrEqual" value="11.5"/>
							<Node score="0.06446452980132451">
								<SimplePredicate field="double(2)" operator="lessOrEqual" value="9.5"/>
							</Node>
						</Node>
						<Node score="0.008436132450331122">
							<SimplePredicate field="double(2)" operator="lessOrEqual" value="12.5"/>
						</Node>
					</Node>
				</TreeModel>
			</Segment>
			<Segment id="18">
				<True/>
				<TreeModel functionName="regression" missingValueStrategy="nullPrediction" noTrueChildStrategy="returnLastPrediction">
					<MiningSchema>
						<MiningField name="double(2)"/>
						<MiningField name="double(0)"/>
						<MiningField name="double(3)"/>
					</MiningSchema>
					<Node score="0.08328533333333334">
						<True/>
						<Node score="0.15078400000000003">
							<SimplePredicate field="double(2)" operator="lessOrEqual" value="1.5"/>
							<Node score="0.015359999999999999">
								<SimplePredicate field="double(2)" operator="lessOrEqual" value="0.5"/>
								<Node score="0.017408">
									<SimplePredicate field="double(3)" operator="lessOrEqual" value="71151.0"/>
									<Node score="0.016384">
										<SimplePredicate field="double(3)" operator="lessOrEqual" value="65020.5"/>
										<Node score="0.014848">
											<SimplePredicate field="double(0)" operator="lessOrEqual" value="1034792.5"/>
										</Node>
									</Node>
									<Node score="0.022528">
										<SimplePredicate field="double(0)" operator="lessOrEqual" value="1062735.0"/>
									</Node>
								</Node>
								<Node score="0.013568000000000002">
									<SimplePredicate field="double(0)" operator="lessOrEqual" value="1642663.5"/>
									<Node score="0.015465931034482756">
										<SimplePredicate field="double(0)" operator="lessOrEqual" value="1624754.5"/>
									</Node>
								</Node>
								<Node score="0.020252444444444444">
									<SimplePredicate field="double(3)" operator="lessOrEqual" value="105127.0"/>
								</Node>
							</Node>
							<Node score="0.1682773333333333">
								<SimplePredicate field="double(3)" operator="lessOrEqual" value="71291.5"/>
								<Node score="0.15837866666666667">
									<SimplePredicate field="double(3)" operator="lessOrEqual" value="67561.0"/>
									<Node score="0.17988266666666666">
										<SimplePredicate field="double(0)" operator="lessOrEqual" value="1071475.0"/>
									</Node>
								</Node>
								<Node score="0.18329600000000001">
									<SimplePredicate field="double(3)" operator="lessOrEqual" value="69492.5"/>
								</Node>
							</Node>
							<Node score="0.128">
								<SimplePredicate field="double(0)" operator="lessOrEqual" value="1156933.0"/>
							</Node>
							<Node score="0.15906997468354434">
								<SimplePredicate field="double(0)" operator="lessOrEqual" value="1624754.5"/>
							</Node>
						</Node>
						<Node score="0.056941714285714276">
							<SimplePredicate field="double(2)" operator="lessOrEqual" value="5.5"/>
							<Node score="0.009265095890410972">
								<SimplePredicate field="double(2)" operator="lessOrEqual" value="4.5"/>
								<Node score="0.007911225806451613">
									<SimplePredicate field="double(3)" operator="lessOrEqual" value="78692.0"/>
									<Node score="0.008868226415094337">
										<SimplePredicate field="double(2)" operator="lessOrEqual" value="3.5"/>
									</Node>
								</Node>
								<Node score="0.0428032">
									<SimplePredicate field="double(3)" operator="lessOrEqual" value="79197.0"/>
								</Node>
							</Node>
							<Node score="0.01887573333333333">
								<SimplePredicate field="double(3)" operator="lessOrEqual" value="102136.0"/>
								<Node score="0.010442271604938266">
									<SimplePredicate field="double(3)" operator="lessOrEqual" value="86948.5"/>
								</Node>
							</Node>
							<Node score="0.08635733333333333">
								<SimplePredicate field="double(0)" operator="lessOrEqual" value="1642657.5"/>
							</Node>
						</Node>
						<Node score="0.05212126860841421">
							<SimplePredicate field="double(2)" operator="lessOrEqual" value="14.5"/>
							<Node score="0.07736720507399585">
								<SimplePredicate field="double(2)" operator="lessOrEqual" value="11.5"/>
								<Node score="0.04868793191489361">
									<SimplePredicate field="double(2)" operator="lessOrEqual" value="8.5"/>
								</Node>
							</Node>
							<Node score="0.008285746478873233">
								<SimplePredicate field="double(2)" operator="lessOrEqual" value="12.5"/>
							</Node>
						</Node>
						<Node score="0.08207825454545455">
							<SimplePredicate field="double(3)" operator="lessOrEqual" value="109835.5"/>
							<Node score="0.08609600000000002">
								<SimplePredicate field="double(0)" operator="lessOrEqual" value="1274265.5"/>
							</Node>
						</Node>
						<Node score="0.11366400000000002">
							<SimplePredicate field="double(0)" operator="lessOrEqual" value="1759945.0"/>
						</Node>
					</Node>
				</TreeModel>
			</Segment>
			<Segment id="19">
				<True/>
				<TreeModel functionName="regression" missingValueStrategy="nullPrediction" noTrueChildStrategy="returnLastPrediction">
					<MiningSchema>
						<MiningField name="double(2)"/>
						<MiningField name="double(0)"/>
						<MiningField name="double(3)"/>
					</MiningSchema>
					<Node score="0.06780430278884456">
						<True/>
						<Node score="0.14740945454545454">
							<SimplePredicate field="double(2)" operator="lessOrEqual" value="1.5"/>
							<Node score="0.01792">
								<SimplePredicate field="double(2)" operator="lessOrEqual" value="0.5"/>
								<Node score="0.011264">
									<SimplePredicate field="double(3)" operator="lessOrEqual" value="106820.0"/>
									<Node score="0.01588512820512821">
										<SimplePredicate field="double(0)" operator="lessOrEqual" value="1699772.5"/>
										<Node score="0.01732608">
											<SimplePredicate field="double(0)" operator="lessOrEqual" value="1154180.5"/>
										</Node>
									</Node>
									<Node score="0.012288">
										<SimplePredicate field="double(3)" operator="lessOrEqual" value="106519.5"/>
									</Node>
								</Node>
								<Node score="0.0256">
									<SimplePredicate field="double(3)" operator="lessOrEqual" value="107501.5"/>
								</Node>
								<Node score="0.015872">
									<SimplePredicate field="double(0)" operator="lessOrEqual" value="1761347.5"/>
								</Node>
							</Node>
							<Node score="0.17626453333333333">
								<SimplePredicate field="double(3)" operator="lessOrEqual" value="101199.0"/>
								<Node score="0.15395352380952382">
									<SimplePredicate field="double(3)" operator="lessOrEqual" value="87888.5"/>
									<Node score="0.17954133333333336">
										<SimplePredicate field="double(3)" operator="lessOrEqual" value="66967.5"/>
									</Node>
								</Node>
								<Node score="0.1678821052631579">
									<SimplePredicate field="double(3)" operator="lessOrEqual" value="95077.0"/>
								</Node>
							</Node>
							<Node score="0.126464">
								<SimplePredicate field="double(0)" operator="lessOrEqual" value="1647102.5"/>
								<Node score="0.137216">
									<SimplePredicate field="double(0)" operator="lessOrEqual" value="1634172.5"/>
								</Node>
							</Node>
							<Node score="0.1755136">
								<SimplePredicate field="double(3)" operator="lessOrEqual" value="104185.5"/>
							</Node>
						</Node>
						<Node score="0.11451733333333332">
							<SimplePredicate field="double(2)" operator="lessOrEqual" value="5.5"/>
							<Node score="0.010988307692307688">
								<SimplePredicate field="double(0)" operator="lessOrEqual" value="1634172.5"/>
								<Node score="0.0651264">
									<SimplePredicate field="double(3)" operator="lessOrEqual" value="67253.5"/>
									<Node score="0.008736">
										<SimplePredicate field="double(3)" operator="lessOrEqual" value="67100.5"/>
									</Node>
								</Node>
								<Node score="0.008959999999999989">
									<SimplePredicate field="double(3)" operator="lessOrEqual" value="81521.0"/>
								</Node>
							</Node>
							<Node score="0.010514474226804118">
								<SimplePredicate field="double(2)" operator="lessOrEqual" value="4.5"/>
								<Node score="0.021964800000000003">
									<SimplePredicate field="double(3)" operator="lessOrEqual" value="103583.0"/>
								</Node>
							</Node>
							<Node score="0.043103999999999996">
								<SimplePredicate field="double(0)" operator="lessOrEqual" value="1759945.0"/>
							</Node>
						</Node>
						<Node score="0.08193896296296298">
							<SimplePredicate field="double(3)" operator="lessOrEqual" value="86184.0"/>
							<Node score="0.03688877419354839">
								<SimplePredicate field="double(2)" operator="lessOrEqual" value="14.5"/>
								<Node score="0.056063461052631595">
									<SimplePredicate field="double(2)" operator="lessOrEqual" value="11.5"/>
								</Node>
							</Node>
							<Node score="0.08690346666666666">
								<SimplePredicate field="double(3)" operator="lessOrEqual" value="73600.5"/>
							</Node>
						</Node>
						<Node score="0.09261610480349346">
							<SimplePredicate field="double(2)" operator="lessOrEqual" value="11.5"/>
							<Node score="0.06857304854368933">
								<SimplePredicate field="double(2)" operator="lessOrEqual" value="8.5"/>
							</Node>
						</Node>
						<Node score="0.0082352676056338">
							<SimplePredicate field="double(2)" operator="lessOrEqual" value="12.5"/>
						</Node>
					</Node>
				</TreeModel>
			</Segment>
			<Segment id="20">
				<True/>
				<TreeModel functionName="regression" missingValueStrategy="nullPrediction" noTrueChildStrategy="returnLastPrediction">
					<MiningSchema>
						<MiningField name="double(2)"/>
						<MiningField name="double(0)"/>
						<MiningField name="double(3)"/>
					</MiningSchema>
					<Node score="0.09201371428571428">
						<True/>
						<Node score="0.14826813793103447">
							<SimplePredicate field="double(2)" operator="lessOrEqual" value="1.5"/>
							<Node score="0.01645892682926829">
								<SimplePredicate field="double(2)" operator="lessOrEqual" value="0.5"/>
								<Node score="0.022528">
									<SimplePredicate field="double(0)" operator="lessOrEqual" value="1051284.0"/>
									<Node score="0.013312000000000001">
										<SimplePredicate field="double(3)" operator="lessOrEqual" value="64848.0"/>
									</Node>
									<Node score="0.024576">
										<SimplePredicate field="double(3)" operator="lessOrEqual" value="65193.5"/>
									</Node>
								</Node>
								<Node score="0.014336000000000002">
									<SimplePredicate field="double(0)" operator="lessOrEqual" value="1485514.0"/>
									<Node score="0.01570936470588235">
										<SimplePredicate field="double(3)" operator="lessOrEqual" value="92596.5"/>
									</Node>
								</Node>
								<Node score="0.023552">
									<SimplePredicate field="double(3)" operator="lessOrEqual" value="93471.0"/>
								</Node>
							</Node>
							<Node score="0.1806336">
								<SimplePredicate field="double(0)" operator="lessOrEqual" value="1617188.0"/>
								<Node score="0.15273115151515154">
									<SimplePredicate field="double(0)" operator="lessOrEqual" value="1344151.0"/>
									<Node score="0.16682666666666668">
										<SimplePredicate field="double(0)" operator="lessOrEqual" value="1073600.5"/>
									</Node>
								</Node>
								<Node score="0.16705163636363637">
									<SimplePredicate field="double(3)" operator="lessOrEqual" value="99006.0"/>
								</Node>
							</Node>
							<Node score="0.12834133333333334">
								<SimplePredicate field="double(0)" operator="lessOrEqual" value="1675412.5"/>
								<Node score="0.137216">
									<SimplePredicate field="double(3)" operator="lessOrEqual" value="102136.0"/>
								</Node>
							</Node>
							<Node score="0.178176">
								<SimplePredicate field="double(0)" operator="lessOrEqual" value="1682086.5"/>
							</Node>
						</Node>
						<Node score="0.083584">
							<SimplePredicate field="double(2)" operator="lessOrEqual" value="5.5"/>
							<Node score="0.01212043636363636">
								<SimplePredicate field="double(2)" operator="lessOrEqual" value="4.5"/>
								<Node score="0.009668266666666666">
									<SimplePredicate field="double(0)" operator="lessOrEqual" value="1685465.5"/>
									<Node score="0.013272615384615384">
										<SimplePredicate field="double(3)" operator="lessOrEqual" value="68685.0"/>
									</Node>
								</Node>
								<Node score="0.091136">
									<SimplePredicate field="double(0)" operator="lessOrEqual" value="1688269.0"/>
								</Node>
							</Node>
							<Node score="0.04278539130434783">
								<SimplePredicate field="double(0)" operator="lessOrEqual" value="1701593.0"/>
								<Node score="0.016991150442477867">
									<SimplePredicate field="double(3)" operator="lessOrEqual" value="102136.0"/>
								</Node>
							</Node>
							<Node score="0.139264">
								<SimplePredicate field="double(3)" operator="lessOrEqual" value="106750.5"/>
							</Node>
						</Node>
						<Node score="0.05122710588235293">
							<SimplePredicate field="double(2)" operator="lessOrEqual" value="14.5"/>
							<Node score="0.0854059574468085">
								<SimplePredicate field="double(2)" operator="lessOrEqual" value="11.5"/>
								<Node score="0.0526347963525836">
									<SimplePredicate field="double(2)" operator="lessOrEqual" value="9.5"/>
								</Node>
							</Node>
							<Node score="0.008437520467836251">
								<SimplePredicate field="double(2)" operator="lessOrEqual" value="12.5"/>
							</Node>
						</Node>
						<Node score="0.07922834285714285">
							<SimplePredicate field="double(0)" operator="lessOrEqual" value="1689827.0"/>
							<Node score="0.08318494117647059">
								<SimplePredicate field="double(0)" operator="lessOrEqual" value="1277120.0"/>
							</Node>
						</Node>
						<Node score="0.08601599999999998">
							<SimplePredicate field="double(0)" operator="lessOrEqual" value="1704303.5"/>
						</Node>
					</Node>
				</TreeModel>
			</Segment>
			<Segment id="21">
				<True/>
				<TreeModel functionName="regression" missingValueStrategy="nullPrediction" noTrueChildStrategy="returnLastPrediction">
					<MiningSchema>
						<MiningField name="double(2)"/>
						<MiningField name="double(0)"/>
						<MiningField name="double(3)"/>
					</MiningSchema>
					<Node score="0.08140500584795321">
						<True/>
						<Node score="0.1492676923076923">
							<SimplePredicate field="double(2)" operator="lessOrEqual" value="1.5"/>
							<Node score="0.015360000000000004">
								<SimplePredicate field="double(2)" operator="lessOrEqual" value="0.5"/>
								<Node score="0.016384">
									<SimplePredicate field="double(0)" operator="lessOrEqual" value="1161259.5"/>
									<Node score="0.016222315789473682">
										<SimplePredicate field="double(3)" operator="lessOrEqual" value="71658.5"/>
										<Node score="0.0186368">
											<SimplePredicate field="double(0)" operator="lessOrEqual" value="1051284.0"/>
										</Node>
									</Node>
									<Node score="0.030719999999999997">
										<SimplePredicate field="double(3)" operator="lessOrEqual" value="72136.5"/>
									</Node>
								</Node>
								<Node score="0.012970666666666667">
									<SimplePredicate field="double(3)" operator="lessOrEqual" value="80602.5"/>
									<Node score="0.015404521739130435">
										<SimplePredicate field="double(0)" operator="lessOrEqual" value="1285155.5"/>
									</Node>
								</Node>
								<Node score="0.016469333333333336">
									<SimplePredicate field="double(3)" operator="lessOrEqual" value="88627.5"/>
								</Node>
							</Node>
							<Node score="0.16481523809523807">
								<SimplePredicate field="double(0)" operator="lessOrEqual" value="1625334.0"/>
								<Node score="0.14926196363636365">
									<SimplePredicate field="double(3)" operator="lessOrEqual" value="83507.5"/>
									<Node score="0.1690737777777778">
										<SimplePredicate field="double(3)" operator="lessOrEqual" value="68036.5"/>
									</Node>
								</Node>
								<Node score="0.17215488">
									<SimplePredicate field="double(3)" operator="lessOrEqual" value="93222.0"/>
								</Node>
							</Node>
							<Node score="0.14165333333333333">
								<SimplePredicate field="double(3)" operator="lessOrEqual" value="102944.5"/>
								<Node score="0.120832">
									<SimplePredicate field="double(3)" operator="lessOrEqual" value="102344.0"/>
								</Node>
							</Node>
							<Node score="0.175104">
								<SimplePredicate field="double(3)" operator="lessOrEqual" value="103866.5"/>
							</Node>
						</Node>
						<Node score="0.09682488888888889">
							<SimplePredicate field="double(2)" operator="lessOrEqual" value="5.5"/>
							<Node score="0.01312937579617833">
								<SimplePredicate field="double(2)" operator="lessOrEqual" value="4.5"/>
								<Node score="0.008887652173913038">
									<SimplePredicate field="double(3)" operator="lessOrEqual" value="96065.0"/>
									<Node score="0.009773948717948705">
										<SimplePredicate field="double(0)" operator="lessOrEqual" value="1267140.0"/>
									</Node>
								</Node>
								<Node score="0.094208">
									<SimplePredicate field="double(3)" operator="lessOrEqual" value="97110.5"/>
								</Node>
							</Node>
							<Node score="0.0251904">
								<SimplePredicate field="double(3)" operator="lessOrEqual" value="102136.0"/>
								<Node score="0.012861064220183476">
									<SimplePredicate field="double(0)" operator="lessOrEqual" value="1572492.0"/>
								</Node>
							</Node>
							<Node score="0.04905890909090908">
								<SimplePredicate field="double(0)" operator="lessOrEqual" value="1759945.0"/>
							</Node>
						</Node>
						<Node score="0.09646347712418303">
							<SimplePredicate field="double(2)" operator="lessOrEqual" value="11.5"/>
							<Node score="0.05805089032258066">
								<SimplePredicate field="double(2)" operator="lessOrEqual" value="9.5"/>
								<Node score="0.030187520000000002">
									<SimplePredicate field="double(0)" operator="lessOrEqual" value="1210796.5"/>
								</Node>
							</Node>
							<Node score="0.17018879999999997">
								<SimplePredicate field="double(0)" operator="lessOrEqual" value="1034792.5"/>
							</Node>
						</Node>
						<Node score="0.008244321167883206">
							<SimplePredicate field="double(2)" operator="lessOrEqual" value="12.5"/>
							<Node score="0.009779200000000002">
								<SimplePredicate field="double(3)" operator="lessOrEqual" value="73228.0"/>
							</Node>
						</Node>
						<Node score="0.05125010397553515">
							<SimplePredicate field="double(2)" operator="lessOrEqual" value="14.5"/>
						</Node>
					</Node>
				</TreeModel>
			</Segment>
			<Segment id="22">
				<True/>
				<TreeModel functionName="regression" missingValueStrategy="nullPrediction" noTrueChildStrategy="returnLastPrediction">
					<MiningSchema>
						<MiningField name="double(2)"/>
						<MiningField name="double(0)"/>
						<MiningField name="double(3)"/>
					</MiningSchema>
					<Node score="0.08123733333333334">
						<True/>
						<Node score="0.129024">
							<SimplePredicate field="double(2)" operator="lessOrEqual" value="1.5"/>
							<Node score="0.014882133333333332">
								<SimplePredicate field="double(2)" operator="lessOrEqual" value="0.5"/>
								<Node score="0.01590272">
									<SimplePredicate field="double(3)" operator="lessOrEqual" value="100078.0"/>
									<Node score="0.013312">
										<SimplePredicate field="double(3)" operator="lessOrEqual" value="65684.5"/>
									</Node>
									<Node score="0.017294222222222225">
										<SimplePredicate field="double(0)" operator="lessOrEqual" value="1142354.0"/>
									</Node>
								</Node>
								<Node score="0.012288">
